svm_type c_svc
kernel_type polynomial
degree 2
gamma 0.1
coef0 0.5
nr_class 2
total_sv 775
rho 0.210698
label 0 1
nr_sv 380 395
SV
0.002289027425971508 0:1 1:1 2:1 3:1 4:1 5:1 6:1 7:1 8:1 9:1 10:1 11:1 12:1 13:1 14:1 15:1 16:1 17:1 18:1 19:1 20:1 21:1 22:1 23:1 24:1 25:1 26:1 27:1 28:1 29:1 30:1 31:1 32:1 33:1 34:1 35:1 36:1 37:1 38:1 39:1 40:1 41:1 42:1 43:1 44:1 45:1 46:1 47:1 48:1 49:1 50:1 51:1 52:1 53:1 54:1 55:1 56:1 57:1 58:1 59:1 60:1 61:1 62:1 63:1 64:1 65:1 66:1 67:1 68:1 69:1 70:1 71:1 72:1 73:1 74:1 75:1 76:1 77:1 78:1 79:1 80:1 81:1 82:1 83:1 84:1 85:1 86:1 87:1 88:1 89:1 90:1 91:1 92:1 93:1 94:1 95:1 96:1 97:1 98:1 99:1 100:1 101:1 102:1 103:1 104:1 105:1 106:1 107:1 108:1 109:1 110:1 111:1 112:1 113:1 114:1 115:1 116:1 117:1 118:1 119:1 120:1 121:1 122:1 123:1 124:1 125:1 126:1 127:1 128:1 129:1 130:1 131:1 132:1 133:1 134:1 135:1 136:1 
0.02627611531104646 0:1 8:1 11:1 21:1 54:1 87:1 110:1 111:1 112:1 126:1 131:1 157:1 206:1 275:1 279:1 312:1 342:1 400:1 484:1 499:1 512:1 565:1 569:1 609:1 672:1 936:1 1081:1 1108:1 1189:1 1460:1 1463:1 1464:1 1465:1 1466:1 1467:1 1468:1 1469:1 1470:1 1471:1 1472:1 1473:1 1474:1 1475:1 1476:1 1477:1 1478:1 1479:1 1480:1 1481:1 1482:1 1483:1 1484:1 
0.1918621888499971 0:1 5:1 16:1 54:1 111:1 116:1 126:1 129:1 342:1 1283:1 1455:1 1476:1 1507:1 1508:1 1509:1 1510:1 1511:1 1512:1 1513:1 
0.002677726527151144 0:1 1:1 5:1 6:1 8:1 10:1 11:1 13:1 21:1 22:1 28:1 37:1 39:1 50:1 51:1 52:1 54:1 56:1 57:1 70:1 78:1 80:1 82:1 83:1 84:1 87:1 106:1 107:1 110:1 111:1 112:1 116:1 122:1 124:1 127:1 131:1 135:1 136:1 150:1 151:1 174:1 193:1 199:1 201:1 255:1 256:1 278:1 307:1 312:1 321:1 343:1 358:1 366:1 374:1 386:1 400:1 413:1 465:1 466:1 509:1 510:1 511:1 512:1 513:1 514:1 516:1 523:1 525:1 540:1 549:1 555:1 557:1 560:1 561:1 562:1 563:1 565:1 586:1 624:1 625:1 629:1 634:1 652:1 807:1 899:1 935:1 937:1 946:1 994:1 1042:1 1043:1 1081:1 1111:1 1194:1 1200:1 1226:1 1228:1 1244:1 1306:1 1329:1 1370:1 1415:1 1469:1 1478:1 1514:1 1515:1 1516:1 1517:1 1518:1 1519:1 1520:1 1521:1 1522:1 1523:1 1524:1 1525:1 1526:1 1527:1 1528:1 1529:1 1530:1 1531:1 1532:1 1533:1 1534:1 1535:1 1536:1 1537:1 1538:1 1539:1 1540:1 1541:1 1542:1 1543:1 1544:1 1545:1 1546:1 1547:1 1548:1 1549:1 1550:1 1551:1 1552:1 1553:1 1554:1 1555:1 1556:1 1557:1 1558:1 1559:1 1560:1 1561:1 1562:1 1563:1 1564:1 1565:1 1566:1 1567:1 1568:1 1569:1 1570:1 1571:1 1572:1 1573:1 1574:1 1575:1 1576:1 1577:1 1578:1 1579:1 1580:1 1581:1 1582:1 1583:1 1584:1 1585:1 1586:1 1587:1 1588:1 1589:1 1590:1 1591:1 1592:1 1593:1 1594:1 1595:1 1596:1 1597:1 1598:1 1599:1 1600:1 1601:1 1602:1 1603:1 1604:1 1605:1 1606:1 1607:1 1608:1 1609:1 1610:1 
0.002008354246852748 0:1 1:1 5:1 10:1 17:1 22:1 28:1 33:1 39:1 51:1 52:1 54:1 56:1 57:1 67:1 73:1 80:1 82:1 84:1 86:1 90:1 106:1 109:1 110:1 111:1 116:1 121:1 129:1 131:1 135:1 136:1 151:1 155:1 279:1 283:1 307:1 313:1 326:1 377:1 392:1 399:1 400:1 412:1 413:1 465:1 484:1 486:1 502:1 509:1 511:1 514:1 530:1 533:1 549:1 561:1 562:1 565:1 593:1 645:1 676:1 723:1 768:1 855:1 860:1 923:1 925:1 935:1 1023:1 1189:1 1255:1 1288:1 1336:1 1376:1 1465:1 1469:1 1568:1 1574:1 1575:1 1580:1 1583:1 1594:1 1602:1 1643:1 1644:1 1645:1 1646:1 1647:1 1648:1 1649:1 1650:1 1651:1 1652:1 1653:1 1654:1 1655:1 1656:1 1657:1 1658:1 1659:1 1660:1 1661:1 1662:1 1663:1 1664:1 1665:1 1666:1 1667:1 1668:1 1669:1 1670:1 1671:1 1672:1 1673:1 1674:1 1675:1 1676:1 1677:1 1678:1 1679:1 1680:1 1681:1 1682:1 1683:1 1684:1 1685:1 1686:1 
0.004588057084242324 0:1 5:1 10:1 16:1 17:1 39:1 42:1 54:1 67:1 80:1 82:1 83:1 85:1 110:1 111:1 116:1 131:1 135:1 261:1 300:1 312:1 316:1 372:1 376:1 399:1 451:1 465:1 513:1 618:1 624:1 629:1 674:1 880:1 897:1 931:1 948:1 985:1 989:1 1081:1 1095:1 1154:1 1164:1 1184:1 1258:1 1320:1 1336:1 1387:1 1469:1 1527:1 1542:1 1550:1 1565:1 1570:1 1582:1 1615:1 1629:1 1671:1 1687:1 1688:1 1689:1 1690:1 1691:1 1692:1 1693:1 1694:1 1695:1 1696:1 1697:1 1698:1 1699:1 1700:1 1701:1 1702:1 1703:1 1704:1 1705:1 1706:1 1707:1 1708:1 1709:1 1710:1 1711:1 1712:1 1713:1 1714:1 1715:1 1716:1 1717:1 1718:1 1719:1 1720:1 1721:1 1722:1 1723:1 1724:1 1725:1 1726:1 1727:1 1728:1 1729:1 
1 0:1 1:1 4:1 5:1 6:1 8:1 10:1 11:1 13:1 16:1 21:1 22:1 27:1 28:1 36:1 39:1 51:1 52:1 54:1 56:1 61:1 70:1 71:1 74:1 79:1 80:1 82:1 84:1 85:1 87:1 106:1 107:1 109:1 110:1 111:1 114:1 116:1 126:1 127:1 139:1 147:1 151:1 154:1 158:1 160:1 175:1 180:1 190:1 191:1 194:1 199:1 201:1 214:1 216:1 238:1 256:1 266:1 268:1 273:1 275:1 280:1 307:1 321:1 335:1 342:1 349:1 356:1 368:1 393:1 399:1 400:1 407:1 409:1 413:1 415:1 423:1 424:1 445:1 450:1 452:1 458:1 465:1 471:1 485:1 499:1 509:1 511:1 512:1 513:1 514:1 516:1 530:1 555:1 557:1 558:1 560:1 561:1 565:1 572:1 586:1 610:1 625:1 627:1 650:1 679:1 684:1 697:1 698:1 717:1 719:1 747:1 762:1 766:1 809:1 810:1 823:1 847:1 855:1 860:1 862:1 868:1 880:1 885:1 897:1 903:1 917:1 920:1 931:1 935:1 936:1 941:1 979:1 994:1 1003:1 1031:1 1043:1 1046:1 1052:1 1062:1 1063:1 1083:1 1104:1 1106:1 1107:1 1112:1 1123:1 1131:1 1154:1 1162:1 1173:1 1183:1 1187:1 1188:1 1189:1 1194:1 1195:1 1212:1 1214:1 1216:1 1219:1 1236:1 1263:1 1291:1 1295:1 1296:1 1297:1 1306:1 1322:1 1328:1 1329:1 1330:1 1341:1 1365:1 1403:1 1408:1 1428:1 1435:1 1442:1 1453:1 1457:1 1458:1 1459:1 1514:1 1544:1 1587:1 1588:1 1589:1 1594:1 1627:1 1637:1 1643:1 1656:1 1661:1 1685:1 1687:1 1713:1 1718:1 1730:1 1731:1 1732:1 1733:1 1734:1 1735:1 1736:1 1737:1 1738:1 1739:1 1740:1 1741:1 1742:1 1743:1 1744:1 1745:1 1746:1 1747:1 1748:1 1749:1 1750:1 1751:1 1752:1 1753:1 1754:1 1755:1 1756:1 1757:1 1758:1 1759:1 1760:1 1761:1 1762:1 1763:1 1764:1 1765:1 1766:1 1767:1 1768:1 1769:1 1770:1 1771:1 1772:1 1773:1 1774:1 1775:1 1776:1 1777:1 1778:1 1779:1 1780:1 1781:1 1782:1 1783:1 1784:1 1785:1 1786:1 1787:1 1788:1 1789:1 1790:1 1791:1 1792:1 1793:1 1794:1 1795:1 1796:1 1797:1 1798:1 1799:1 1800:1 1801:1 1802:1 1803:1 1804:1 1805:1 1806:1 1807:1 1808:1 1809:1 1810:1 1811:1 1812:1 1813:1 1814:1 1815:1 1816:1 1817:1 1818:1 1819:1 1820:1 1821:1 1822:1 1823:1 1824:1 1825:1 1826:1 1827:1 1828:1 1829:1 1830:1 1831:1 1832:1 1833:1 1834:1 1835:1 1836:1 1837:1 1838:1 1839:1 1840:1 1841:1 1842:1 1843:1 1844:1 1845:1 1846:1 1847:1 1848:1 1849:1 1850:1 1851:1 1852:1 1853:1 1854:1 1855:1 1856:1 1857:1 1858:1 1859:1 1860:1 1861:1 1862:1 1863:1 1864:1 1865:1 1866:1 1867:1 1868:1 1869:1 1870:1 1871:1 1872:1 1873:1 1874:1 1875:1 1876:1 1877:1 1878:1 1879:1 1880:1 1881:1 1882:1 1883:1 1884:1 1885:1 1886:1 1887:1 1888:1 1889:1 1890:1 1891:1 1892:1 1893:1 1894:1 1895:1 1896:1 1897:1 1898:1 1899:1 1900:1 1901:1 1902:1 1903:1 1904:1 1905:1 1906:1 1907:1 1908:1 1909:1 1910:1 1911:1 1912:1 1913:1 1914:1 1915:1 1916:1 1917:1 1918:1 1919:1 1920:1 1921:1 1922:1 1923:1 1924:1 1925:1 1926:1 1927:1 1928:1 1929:1 1930:1 1931:1 1932:1 1933:1 1934:1 1935:1 1936:1 1937:1 1938:1 1939:1 1940:1 1941:1 1942:1 1943:1 1944:1 1945:1 1946:1 1947:1 1948:1 1949:1 1950:1 1951:1 1952:1 1953:1 1954:1 1955:1 1956:1 1957:1 1958:1 1959:1 1960:1 1961:1 1962:1 1963:1 1964:1 1965:1 1966:1 1967:1 1968:1 1969:1 1970:1 1971:1 1972:1 1973:1 1974:1 1975:1 1976:1 1977:1 1978:1 1979:1 1980:1 1981:1 1982:1 1983:1 1984:1 1985:1 1986:1 1987:1 1988:1 1989:1 1990:1 1991:1 1992:1 1993:1 1994:1 1995:1 1996:1 1997:1 1998:1 1999:1 2000:1 2001:1 2002:1 2003:1 2004:1 2005:1 2006:1 2007:1 2008:1 2009:1 2010:1 2011:1 2012:1 2013:1 2014:1 2015:1 2016:1 2017:1 2018:1 2019:1 2020:1 2021:1 2022:1 2023:1 2024:1 2025:1 2026:1 2027:1 2028:1 2029:1 2030:1 2031:1 2032:1 2033:1 2034:1 2035:1 2036:1 2037:1 2038:1 2039:1 2040:1 2041:1 2042:1 2043:1 2044:1 2045:1 2046:1 2047:1 2048:1 2049:1 2050:1 2051:1 2052:1 2053:1 2054:1 2055:1 2056:1 2057:1 2058:1 2059:1 2060:1 2061:1 2062:1 2063:1 2064:1 2065:1 2066:1 2067:1 2068:1 2069:1 2070:1 2071:1 2072:1 2073:1 2074:1 2075:1 2076:1 2077:1 2078:1 2079:1 2080:1 2081:1 2082:1 2083:1 2084:1 2085:1 2086:1 2087:1 
1 0:1 1:1 4:1 5:1 6:1 8:1 10:1 11:1 13:1 16:1 21:1 22:1 27:1 28:1 36:1 39:1 47:1 51:1 52:1 54:1 56:1 61:1 67:1 70:1 71:1 72:1 73:1 74:1 75:1 79:1 80:1 82:1 83:1 84:1 85:1 86:1 87:1 94:1 95:1 106:1 107:1 109:1 110:1 111:1 112:1 114:1 116:1 117:1 123:1 124:1 126:1 127:1 128:1 129:1 133:1 135:1 136:1 139:1 146:1 147:1 148:1 151:1 154:1 157:1 158:1 160:1 175:1 180:1 190:1 191:1 194:1 195:1 199:1 201:1 214:1 216:1 222:1 227:1 235:1 238:1 241:1 250:1 256:1 259:1 261:1 266:1 268:1 273:1 275:1 280:1 307:1 321:1 329:1 335:1 339:1 340:1 342:1 349:1 353:1 356:1 366:1 368:1 372:1 378:1 393:1 399:1 400:1 407:1 409:1 412:1 413:1 415:1 423:1 424:1 433:1 434:1 445:1 449:1 450:1 452:1 458:1 465:1 470:1 471:1 485:1 499:1 509:1 511:1 512:1 513:1 514:1 516:1 517:1 518:1 523:1 527:1 530:1 532:1 542:1 550:1 555:1 557:1 558:1 560:1 561:1 562:1 564:1 565:1 569:1 572:1 573:1 576:1 582:1 586:1 606:1 610:1 618:1 625:1 627:1 634:1 641:1 650:1 665:1 670:1 679:1 681:1 684:1 690:1 693:1 697:1 698:1 700:1 709:1 711:1 717:1 719:1 734:1 747:1 752:1 758:1 762:1 766:1 809:1 810:1 823:1 846:1 847:1 855:1 857:1 860:1 862:1 868:1 874:1 879:1 880:1 885:1 897:1 903:1 917:1 918:1 920:1 924:1 929:1 931:1 935:1 936:1 941:1 979:1 994:1 1001:1 1003:1 1007:1 1020:1 1031:1 1034:1 1035:1 1043:1 1046:1 1048:1 1052:1 1058:1 1062:1 1063:1 1083:1 1104:1 1105:1 1106:1 1107:1 1110:1 1112:1 1116:1 1123:1 1131:1 1149:1 1151:1 1154:1 1158:1 1162:1 1173:1 1183:1 1187:1 1188:1 1189:1 1194:1 1195:1 1212:1 1214:1 1216:1 1219:1 1222:1 1236:1 1238:1 1250:1 1254:1 1255:1 1263:1 1278:1 1284:1 1288:1 1291:1 1295:1 1296:1 1297:1 1306:1 1320:1 1322:1 1328:1 1329:1 1330:1 1336:1 1341:1 1342:1 1357:1 1365:1 1377:1 1378:1 1392:1 1402:1 1403:1 1405:1 1406:1 1408:1 1415:1 1417:1 1428:1 1435:1 1437:1 1442:1 1453:1 1457:1 1458:1 1459:1 1489:1 1496:1 1514:1 1533:1 1538:1 1544:1 1569:1 1585:1 1587:1 1588:1 1589:1 1594:1 1612:1 1627:1 1632:1 1637:1 1643:1 1656:1 1661:1 1664:1 1667:1 1680:1 1685:1 1687:1 1692:1 1696:1 1698:1 1700:1 1709:1 1713:1 1717:1 1718:1 1724:1 1730:1 1731:1 1732:1 1733:1 1734:1 1735:1 1736:1 1737:1 1738:1 1739:1 1740:1 1741:1 1742:1 1743:1 1744:1 1745:1 1746:1 1747:1 1748:1 1749:1 1750:1 1751:1 1752:1 1753:1 1754:1 1755:1 1756:1 1757:1 1758:1 1759:1 1760:1 1761:1 1762:1 1763:1 1764:1 1765:1 1766:1 1767:1 1768:1 1769:1 1770:1 1771:1 1772:1 1773:1 1774:1 1775:1 1776:1 1777:1 1778:1 1779:1 1780:1 1781:1 1782:1 1783:1 1784:1 1785:1 1786:1 1787:1 1788:1 1789:1 1790:1 1791:1 1792:1 1793:1 1794:1 1795:1 1796:1 1797:1 1798:1 1799:1 1800:1 1801:1 1802:1 1803:1 1804:1 1805:1 1806:1 1807:1 1808:1 1809:1 1810:1 1811:1 1812:1 1813:1 1814:1 1815:1 1816:1 1817:1 1818:1 1819:1 1820:1 1821:1 1822:1 1823:1 1824:1 1825:1 1826:1 1827:1 1828:1 1829:1 1830:1 1831:1 1832:1 1833:1 1834:1 1835:1 1836:1 1837:1 1838:1 1839:1 1840:1 1841:1 1842:1 1843:1 1844:1 1845:1 1846:1 1847:1 1848:1 1849:1 1850:1 1851:1 1852:1 1853:1 1854:1 1855:1 1856:1 1857:1 1858:1 1859:1 1860:1 1861:1 1862:1 1863:1 1864:1 1865:1 1866:1 1867:1 1868:1 1869:1 1870:1 1871:1 1872:1 1873:1 1874:1 1875:1 1876:1 1877:1 1878:1 1879:1 1880:1 1881:1 1882:1 1883:1 1884:1 1885:1 1886:1 1887:1 1888:1 1889:1 1890:1 1891:1 1892:1 1893:1 1894:1 1895:1 1896:1 1897:1 1898:1 1899:1 1900:1 1901:1 1902:1 1903:1 1904:1 1905:1 1906:1 1907:1 1908:1 1909:1 1910:1 1911:1 1912:1 1913:1 1914:1 1915:1 1916:1 1917:1 1918:1 1919:1 1920:1 1921:1 1922:1 1923:1 1924:1 1925:1 1926:1 1927:1 1928:1 1929:1 1930:1 1931:1 1932:1 1933:1 1934:1 1935:1 1936:1 1937:1 1938:1 1939:1 1940:1 1941:1 1942:1 1943:1 1944:1 1945:1 1946:1 1947:1 1948:1 1949:1 1950:1 1951:1 1952:1 1953:1 1954:1 1955:1 1956:1 1957:1 1958:1 1959:1 1960:1 1961:1 1962:1 1963:1 1964:1 1965:1 1966:1 1967:1 1968:1 1969:1 1970:1 1971:1 1972:1 1973:1 1974:1 1975:1 1976:1 1977:1 1978:1 1979:1 1980:1 1981:1 1982:1 1983:1 1984:1 1985:1 1986:1 1987:1 1988:1 1989:1 1990:1 1991:1 1992:1 1993:1 1994:1 1995:1 1996:1 1997:1 1998:1 1999:1 2000:1 2001:1 2002:1 2003:1 2004:1 2005:1 2006:1 2007:1 2008:1 2009:1 2010:1 2011:1 2012:1 2013:1 2014:1 2015:1 2016:1 2017:1 2018:1 2019:1 2020:1 2021:1 2022:1 2023:1 2024:1 2025:1 2026:1 2027:1 2028:1 2029:1 2030:1 2031:1 2032:1 2033:1 2034:1 2035:1 2036:1 2037:1 2038:1 2039:1 2040:1 2041:1 2042:1 2043:1 2044:1 2045:1 2046:1 2047:1 2048:1 2049:1 2050:1 2051:1 2052:1 2053:1 2054:1 2055:1 2056:1 2057:1 2058:1 2059:1 2060:1 2061:1 2062:1 2063:1 2064:1 2065:1 2066:1 2067:1 2068:1 2069:1 2070:1 2071:1 2072:1 2073:1 2074:1 2075:1 2076:1 2077:1 2078:1 2079:1 2080:1 2081:1 2082:1 2083:1 2084:1 2085:1 2086:1 2087:1 2088:1 2089:1 2090:1 2091:1 2092:1 2093:1 2094:1 2095:1 2096:1 2097:1 2098:1 2099:1 2100:1 2101:1 2102:1 2103:1 2104:1 2105:1 2106:1 2107:1 2108:1 2109:1 2110:1 2111:1 2112:1 2113:1 2114:1 2115:1 2116:1 2117:1 2118:1 2119:1 2120:1 2121:1 2122:1 2123:1 2124:1 2125:1 2126:1 2127:1 2128:1 2129:1 2130:1 2131:1 2132:1 2133:1 2134:1 2135:1 2136:1 2137:1 2138:1 2139:1 2140:1 2141:1 2142:1 2143:1 2144:1 2145:1 2146:1 2147:1 2148:1 2149:1 2150:1 2151:1 2152:1 2153:1 2154:1 2155:1 2156:1 2157:1 2158:1 2159:1 2160:1 2161:1 2162:1 2163:1 2164:1 2165:1 2166:1 2167:1 2168:1 2169:1 2170:1 2171:1 2172:1 2173:1 2174:1 2175:1 2176:1 2177:1 2178:1 2179:1 2180:1 2181:1 2182:1 2183:1 2184:1 2185:1 2186:1 2187:1 2188:1 2189:1 2190:1 2191:1 2192:1 2193:1 2194:1 2195:1 2196:1 2197:1 2198:1 2199:1 2200:1 2201:1 2202:1 2203:1 2204:1 2205:1 2206:1 2207:1 2208:1 2209:1 2210:1 2211:1 2212:1 2213:1 2214:1 2215:1 2216:1 2217:1 2218:1 2219:1 2220:1 2221:1 2222:1 2223:1 2224:1 2225:1 2226:1 2227:1 2228:1 2229:1 2230:1 2231:1 2232:1 2233:1 2234:1 2235:1 2236:1 2237:1 2238:1 2239:1 2240:1 2241:1 2242:1 2243:1 2244:1 2245:1 2246:1 2247:1 2248:1 2249:1 2250:1 2251:1 2252:1 2253:1 2254:1 2255:1 2256:1 2257:1 2258:1 2259:1 2260:1 2261:1 2262:1 2263:1 2264:1 2265:1 2266:1 2267:1 2268:1 2269:1 2270:1 2271:1 2272:1 2273:1 2274:1 2275:1 2276:1 2277:1 2278:1 2279:1 2280:1 2281:1 2282:1 2283:1 2284:1 2285:1 2286:1 2287:1 2288:1 2289:1 2290:1 2291:1 2292:1 2293:1 2294:1 2295:1 2296:1 2297:1 2298:1 2299:1 2300:1 2301:1 2302:1 2303:1 2304:1 2305:1 2306:1 2307:1 2308:1 2309:1 2310:1 2311:1 2312:1 2313:1 2314:1 2315:1 2316:1 2317:1 2318:1 2319:1 2320:1 2321:1 2322:1 2323:1 2324:1 2325:1 2326:1 2327:1 2328:1 2329:1 2330:1 2331:1 2332:1 2333:1 2334:1 2335:1 2336:1 2337:1 2338:1 2339:1 2340:1 2341:1 2342:1 2343:1 2344:1 2345:1 2346:1 2347:1 2348:1 2349:1 2350:1 2351:1 2352:1 2353:1 2354:1 2355:1 2356:1 2357:1 2358:1 2359:1 2360:1 2361:1 2362:1 2363:1 2364:1 2365:1 2366:1 2367:1 2368:1 2369:1 2370:1 2371:1 2372:1 2373:1 2374:1 2375:1 2376:1 2377:1 2378:1 2379:1 2380:1 2381:1 2382:1 2383:1 2384:1 2385:1 2386:1 2387:1 2388:1 2389:1 2390:1 2391:1 2392:1 2393:1 2394:1 2395:1 2396:1 2397:1 2398:1 2399:1 2400:1 2401:1 2402:1 2403:1 2404:1 2405:1 2406:1 2407:1 2408:1 2409:1 2410:1 2411:1 2412:1 2413:1 2414:1 2415:1 2416:1 2417:1 2418:1 2419:1 2420:1 2421:1 2422:1 2423:1 2424:1 2425:1 2426:1 2427:1 2428:1 2429:1 2430:1 2431:1 2432:1 2433:1 2434:1 2435:1 2436:1 2437:1 2438:1 2439:1 2440:1 2441:1 2442:1 2443:1 2444:1 2445:1 2446:1 2447:1 2448:1 2449:1 2450:1 2451:1 2452:1 2453:1 2454:1 2455:1 2456:1 2457:1 2458:1 2459:1 2460:1 2461:1 2462:1 2463:1 2464:1 2465:1 2466:1 2467:1 2468:1 2469:1 
0.9999433660127672 0:1 1:1 5:1 6:1 8:1 11:1 13:1 16:1 21:1 28:1 39:1 47:1 51:1 52:1 54:1 56:1 67:1 70:1 71:1 72:1 73:1 74:1 75:1 79:1 80:1 82:1 83:1 84:1 85:1 86:1 87:1 94:1 95:1 106:1 109:1 111:1 112:1 116:1 117:1 123:1 124:1 126:1 128:1 129:1 135:1 136:1 139:1 146:1 148:1 151:1 157:1 180:1 191:1 194:1 195:1 199:1 201:1 222:1 227:1 235:1 241:1 250:1 256:1 259:1 261:1 307:1 321:1 329:1 339:1 340:1 342:1 353:1 366:1 372:1 378:1 393:1 399:1 407:1 409:1 412:1 413:1 423:1 433:1 434:1 449:1 465:1 470:1 485:1 509:1 511:1 512:1 516:1 517:1 518:1 527:1 532:1 542:1 550:1 558:1 560:1 562:1 564:1 565:1 569:1 573:1 576:1 582:1 586:1 606:1 610:1 618:1 627:1 634:1 641:1 665:1 670:1 679:1 681:1 690:1 693:1 700:1 709:1 711:1 734:1 747:1 752:1 758:1 766:1 809:1 846:1 857:1 860:1 862:1 874:1 879:1 903:1 918:1 924:1 929:1 931:1 979:1 1001:1 1007:1 1020:1 1034:1 1035:1 1048:1 1058:1 1083:1 1105:1 1107:1 1110:1 1112:1 1116:1 1149:1 1151:1 1154:1 1158:1 1189:1 1195:1 1222:1 1236:1 1238:1 1250:1 1254:1 1255:1 1263:1 1284:1 1288:1 1320:1 1329:1 1330:1 1336:1 1342:1 1357:1 1377:1 1378:1 1392:1 1402:1 1405:1 1406:1 1415:1 1417:1 1428:1 1435:1 1437:1 1442:1 1457:1 1458:1 1489:1 1496:1 1533:1 1538:1 1585:1 1588:1 1594:1 1612:1 1632:1 1656:1 1661:1 1664:1 1667:1 1680:1 1687:1 1692:1 1696:1 1698:1 1700:1 1709:1 1717:1 1724:1 1747:1 1753:1 1754:1 1757:1 1760:1 1761:1 1781:1 1786:1 1790:1 1799:1 1810:1 1816:1 1818:1 1819:1 1820:1 1821:1 1822:1 1834:1 1838:1 1843:1 1846:1 1848:1 1859:1 1862:1 1870:1 1873:1 1882:1 1884:1 1893:1 1899:1 1902:1 1906:1 1908:1 1909:1 1911:1 1917:1 1918:1 1919:1 1925:1 1928:1 1929:1 1931:1 1940:1 1949:1 1951:1 1953:1 1955:1 1957:1 1959:1 1966:1 1977:1 1996:1 1999:1 2012:1 2015:1 2023:1 2024:1 2034:1 2052:1 2057:1 2066:1 2067:1 2068:1 2069:1 2070:1 2079:1 2082:1 2087:1 2088:1 2089:1 2090:1 2091:1 2092:1 2093:1 2094:1 2095:1 2096:1 2098:1 2099:1 2100:1 2101:1 2102:1 2103:1 2105:1 2106:1 2107:1 2108:1 2109:1 2110:1 2111:1 2112:1 2113:1 2114:1 2115:1 2116:1 2117:1 2118:1 2119:1 2120:1 2121:1 2122:1 2123:1 2124:1 2125:1 2126:1 2127:1 2128:1 2129:1 2130:1 2131:1 2132:1 2133:1 2134:1 2135:1 2136:1 2137:1 2138:1 2139:1 2140:1 2141:1 2142:1 2143:1 2144:1 2145:1 2146:1 2147:1 2148:1 2149:1 2150:1 2151:1 2152:1 2153:1 2154:1 2155:1 2156:1 2157:1 2158:1 2159:1 2160:1 2161:1 2162:1 2163:1 2164:1 2165:1 2166:1 2167:1 2168:1 2169:1 2170:1 2171:1 2172:1 2173:1 2174:1 2175:1 2176:1 2177:1 2178:1 2179:1 2180:1 2181:1 2182:1 2183:1 2184:1 2185:1 2186:1 2187:1 2188:1 2189:1 2190:1 2192:1 2193:1 2194:1 2195:1 2196:1 2197:1 2198:1 2199:1 2200:1 2201:1 2202:1 2203:1 2204:1 2205:1 2206:1 2207:1 2208:1 2209:1 2210:1 2211:1 2212:1 2213:1 2214:1 2215:1 2216:1 2217:1 2218:1 2219:1 2220:1 2221:1 2224:1 2225:1 2226:1 2227:1 2228:1 2229:1 2230:1 2231:1 2233:1 2234:1 2235:1 2236:1 2237:1 2238:1 2239:1 2240:1 2241:1 2242:1 2243:1 2244:1 2245:1 2246:1 2247:1 2248:1 2249:1 2250:1 2251:1 2252:1 2253:1 2254:1 2255:1 2256:1 2257:1 2258:1 2259:1 2260:1 2261:1 2262:1 2263:1 2264:1 2265:1 2266:1 2267:1 2268:1 2269:1 2270:1 2271:1 2272:1 2273:1 2274:1 2275:1 2276:1 2277:1 2278:1 2280:1 2281:1 2282:1 2283:1 2284:1 2285:1 2286:1 2287:1 2288:1 2289:1 2290:1 2291:1 2292:1 2293:1 2294:1 2295:1 2296:1 2297:1 2298:1 2299:1 2300:1 2301:1 2302:1 2303:1 2304:1 2305:1 2306:1 2307:1 2308:1 2309:1 2310:1 2311:1 2312:1 2313:1 2314:1 2316:1 2317:1 2318:1 2319:1 2320:1 2321:1 2322:1 2323:1 2324:1 2325:1 2326:1 2327:1 2328:1 2329:1 2330:1 2331:1 2332:1 2333:1 2334:1 2335:1 2336:1 2337:1 2338:1 2339:1 2340:1 2341:1 2342:1 2343:1 2344:1 2345:1 2346:1 2347:1 2348:1 2349:1 2350:1 2351:1 2352:1 2353:1 2354:1 2355:1 2356:1 2357:1 2358:1 2359:1 2360:1 2361:1 2362:1 2363:1 2364:1 2365:1 2366:1 2367:1 2368:1 2369:1 2370:1 2371:1 2373:1 2374:1 2375:1 2376:1 2377:1 2379:1 2380:1 2381:1 2382:1 2383:1 2384:1 2385:1 2386:1 2387:1 2388:1 2389:1 2390:1 2391:1 2392:1 2393:1 2394:1 2395:1 2396:1 2397:1 2398:1 2400:1 2401:1 2402:1 2403:1 2404:1 2405:1 2406:1 2408:1 2409:1 2410:1 2411:1 2412:1 2414:1 2415:1 2416:1 2417:1 2418:1 2419:1 2420:1 2421:1 2422:1 2423:1 2424:1 2425:1 2427:1 2429:1 2431:1 2432:1 2433:1 2434:1 2435:1 2436:1 2438:1 2439:1 2440:1 2441:1 2442:1 2443:1 2444:1 2445:1 2446:1 2447:1 2448:1 2449:1 2450:1 2451:1 2452:1 2453:1 2454:1 2455:1 2456:1 2457:1 2458:1 2460:1 2461:1 2462:1 2463:1 2464:1 2465:1 2467:1 2468:1 2469:1 
0.02814641280013169 0:1 10:1 16:1 52:1 54:1 82:1 84:1 110:1 116:1 129:1 135:1 253:1 321:1 366:1 399:1 471:1 512:1 556:1 595:1 681:1 860:1 872:1 994:1 1111:1 1189:1 1396:1 1453:1 1469:1 1509:1 1521:1 1528:1 1556:1 1568:1 1574:1 1605:1 1606:1 1661:1 2104:1 2525:1 2526:1 2527:1 2528:1 2529:1 2530:1 2531:1 2532:1 2533:1 2534:1 2535:1 
0.01935224147778489 0:1 1:1 5:1 16:1 21:1 39:1 51:1 80:1 82:1 110:1 111:1 116:1 126:1 129:1 135:1 180:1 249:1 321:1 343:1 399:1 400:1 407:1 465:1 547:1 610:1 1016:1 1324:1 1329:1 1354:1 1392:1 1457:1 1596:1 1636:1 1671:1 1754:1 1804:1 1900:1 2134:1 2159:1 2483:1 2536:1 2537:1 2538:1 2539:1 2540:1 2541:1 2542:1 2543:1 2544:1 2545:1 2546:1 2547:1 2548:1 2549:1 2550:1 2551:1 2552:1 2553:1 
0.003012630270123326 0:1 5:1 8:1 10:1 28:1 39:1 44:1 47:1 51:1 52:1 54:1 56:1 57:1 80:1 84:1 110:1 129:1 131:1 135:1 199:1 229:1 307:1 312:1 340:1 392:1 400:1 407:1 465:1 484:1 511:1 516:1 542:1 547:1 558:1 572:1 645:1 723:1 1019:1 1164:1 1288:1 1376:1 1518:1 1594:1 1646:1 1647:1 1658:1 1664:1 1670:1 1671:1 1678:1 1679:1 1681:1 1684:1 1781:1 1793:1 1951:1 2258:1 2298:1 2483:1 2554:1 2555:1 2556:1 2557:1 2558:1 2559:1 2560:1 2561:1 2562:1 2563:1 2564:1 2565:1 2566:1 2567:1 2568:1 
0.006488366818766974 0:1 5:1 8:1 10:1 13:1 16:1 21:1 28:1 39:1 45:1 51:1 52:1 54:1 56:1 57:1 61:1 70:1 71:1 80:1 84:1 106:1 110:1 111:1 112:1 113:1 116:1 124:1 131:1 135:1 136:1 146:1 189:1 201:1 227:1 256:1 258:1 321:1 353:1 377:1 399:1 420:1 465:1 486:1 513:1 514:1 516:1 540:1 543:1 546:1 565:1 618:1 650:1 723:1 774:1 856:1 872:1 874:1 947:1 1015:1 1081:1 1194:1 1205:1 1295:1 1298:1 1329:1 1469:1 1502:1 1518:1 1574:1 1583:1 1589:1 1613:1 1767:1 1870:1 2066:1 2167:1 2213:1 2282:1 2290:1 2532:1 2565:1 2569:1 2570:1 2571:1 2572:1 2573:1 2574:1 2575:1 2576:1 2577:1 2578:1 2579:1 2580:1 2581:1 2582:1 2583:1 2584:1 2585:1 2586:1 2587:1 2588:1 2589:1 2590:1 2591:1 2592:1 2593:1 2594:1 2595:1 2596:1 
0.0008078676551572135 0:1 5:1 8:1 10:1 17:1 21:1 39:1 48:1 51:1 52:1 54:1 56:1 80:1 82:1 84:1 85:1 87:1 100:1 106:1 110:1 111:1 116:1 124:1 126:1 131:1 135:1 136:1 151:1 221:1 234:1 255:1 256:1 294:1 313:1 316:1 347:1 365:1 366:1 376:1 386:1 392:1 407:1 412:1 491:1 511:1 512:1 518:1 542:1 569:1 591:1 601:1 625:1 640:1 646:1 721:1 776:1 823:1 824:1 879:1 938:1 1007:1 1052:1 1091:1 1096:1 1108:1 1174:1 1189:1 1284:1 1327:1 1407:1 1469:1 1501:1 1518:1 1544:1 1588:1 1600:1 1870:1 1937:1 2057:1 2145:1 2236:1 2390:1 2405:1 2603:1 2648:1 2649:1 2650:1 2651:1 2652:1 2653:1 2654:1 2655:1 2656:1 2657:1 2658:1 2659:1 2660:1 2661:1 2662:1 2663:1 2664:1 2665:1 2666:1 2667:1 2668:1 2669:1 2670:1 2671:1 2672:1 2673:1 2674:1 2675:1 2676:1 2677:1 2678:1 2679:1 2680:1 2681:1 2682:1 2683:1 2684:1 2685:1 2686:1 2687:1 2688:1 2689:1 2690:1 
0.004505542288344922 0:1 5:1 6:1 10:1 13:1 16:1 28:1 51:1 54:1 56:1 57:1 73:1 80:1 109:1 111:1 112:1 116:1 121:1 126:1 131:1 136:1 144:1 188:1 191:1 194:1 242:1 283:1 288:1 342:1 374:1 376:1 392:1 399:1 465:1 516:1 573:1 576:1 595:1 684:1 732:1 745:1 853:1 860:1 922:1 948:1 1015:1 1031:1 1122:1 1377:1 1453:1 1489:1 1518:1 1588:1 1629:1 1746:1 1917:1 1959:1 2085:1 2342:1 2406:1 2509:1 2569:1 2572:1 2675:1 2717:1 2718:1 2719:1 2720:1 2721:1 2722:1 2723:1 2724:1 2725:1 2726:1 2727:1 2728:1 2729:1 2730:1 2731:1 2732:1 2733:1 2734:1 2735:1 2736:1 2737:1 2738:1 2739:1 2740:1 2741:1 2742:1 2743:1 2744:1 2745:1 2746:1 2747:1 2748:1 2749:1 2750:1 2751:1 2752:1 2753:1 2754:1 2755:1 2756:1 2757:1 2758:1 2759:1 2760:1 2761:1 2762:1 2763:1 
0.04829746502246419 0:1 5:1 16:1 50:1 51:1 71:1 89:1 116:1 129:1 138:1 151:1 296:1 297:1 321:1 342:1 366:1 465:1 558:1 595:1 700:1 830:1 922:1 938:1 1108:1 1254:1 1283:1 1690:1 1870:1 2367:1 2764:1 2765:1 2766:1 2767:1 2768:1 2769:1 2770:1 2771:1 
8.090723057438421e-05 0:1 4:1 5:1 6:1 8:1 10:1 11:1 13:1 16:1 17:1 21:1 22:1 28:1 39:1 45:1 49:1 51:1 52:1 54:1 55:1 56:1 57:1 58:1 62:1 65:1 66:1 67:1 68:1 69:1 73:1 80:1 82:1 83:1 84:1 85:1 88:1 91:1 94:1 95:1 101:1 106:1 109:1 110:1 111:1 116:1 126:1 129:1 131:1 135:1 143:1 144:1 145:1 146:1 148:1 151:1 152:1 154:1 155:1 160:1 167:1 178:1 189:1 193:1 195:1 199:1 201:1 202:1 203:1 205:1 206:1 213:1 215:1 219:1 221:1 224:1 227:1 229:1 235:1 239:1 243:1 244:1 245:1 251:1 252:1 253:1 255:1 256:1 258:1 259:1 264:1 266:1 267:1 272:1 275:1 280:1 282:1 286:1 288:1 305:1 307:1 309:1 312:1 316:1 321:1 324:1 326:1 336:1 344:1 347:1 356:1 360:1 361:1 376:1 386:1 394:1 398:1 400:1 403:1 405:1 407:1 412:1 416:1 425:1 426:1 445:1 447:1 449:1 455:1 461:1 464:1 465:1 466:1 468:1 469:1 470:1 471:1 478:1 480:1 484:1 497:1 499:1 509:1 511:1 512:1 513:1 514:1 516:1 518:1 519:1 530:1 531:1 538:1 541:1 543:1 545:1 547:1 548:1 549:1 550:1 555:1 556:1 558:1 560:1 561:1 562:1 569:1 587:1 591:1 601:1 606:1 627:1 662:1 663:1 691:1 695:1 717:1 749:1 765:1 771:1 773:1 774:1 788:1 822:1 842:1 855:1 862:1 893:1 913:1 919:1 944:1 1043:1 1058:1 1062:1 1154:1 1155:1 1158:1 1195:1 1259:1 1270:1 1295:1 1304:1 1306:1 1322:1 1329:1 1341:1 1369:1 1587:1 1589:1 1983:1 1995:1 2022:1 2772:1 2773:1 2774:1 2775:1 2776:1 2777:1 2778:1 2779:1 2780:1 2781:1 2782:1 2783:1 2784:1 2785:1 2786:1 2787:1 2788:1 2789:1 2790:1 2791:1 2792:1 2793:1 2794:1 2795:1 2796:1 2797:1 2798:1 2799:1 2800:1 2801:1 2802:1 2803:1 2804:1 
0.0005036235416812832 0:1 4:1 5:1 8:1 9:1 11:1 13:1 16:1 39:1 50:1 51:1 52:1 54:1 56:1 57:1 67:1 74:1 75:1 76:1 80:1 82:1 83:1 84:1 87:1 97:1 106:1 107:1 110:1 111:1 113:1 116:1 126:1 129:1 130:1 131:1 135:1 151:1 152:1 183:1 188:1 201:1 205:1 256:1 261:1 279:1 280:1 307:1 312:1 313:1 321:1 333:1 343:1 366:1 391:1 392:1 399:1 465:1 466:1 474:1 484:1 509:1 511:1 512:1 513:1 516:1 527:1 530:1 540:1 547:1 550:1 551:1 555:1 556:1 562:1 565:1 595:1 643:1 656:1 855:1 870:1 874:1 879:1 938:1 942:1 948:1 1031:1 1034:1 1042:1 1095:1 1118:1 1122:1 1136:1 1206:1 1250:1 1329:1 1370:1 1376:1 1424:1 1469:1 1503:1 1574:1 1584:1 1591:1 1628:1 1724:1 1919:1 2154:1 2161:1 2172:1 2194:1 2252:1 2326:1 2359:1 2576:1 2591:1 2723:1 2765:1 2805:1 2806:1 2807:1 2808:1 2809:1 2810:1 2811:1 2812:1 2813:1 2814:1 2815:1 2816:1 2817:1 2818:1 2819:1 2820:1 2821:1 2822:1 2823:1 2824:1 2825:1 2826:1 2827:1 2828:1 2829:1 2830:1 2831:1 2832:1 2833:1 2834:1 2835:1 2836:1 2837:1 2838:1 2839:1 2840:1 2841:1 2842:1 2843:1 2844:1 2845:1 2846:1 2847:1 2848:1 2849:1 2850:1 2851:1 2852:1 2853:1 2854:1 2855:1 2856:1 2857:1 2858:1 2859:1 2860:1 2861:1 2862:1 2863:1 2864:1 2865:1 2866:1 2867:1 2868:1 2869:1 2870:1 2871:1 2872:1 2873:1 2874:1 
0.008112207134872439 0:1 4:1 5:1 6:1 8:1 11:1 13:1 39:1 42:1 54:1 56:1 57:1 58:1 61:1 80:1 82:1 87:1 110:1 111:1 116:1 163:1 188:1 190:1 258:1 262:1 305:1 354:1 373:1 388:1 392:1 400:1 407:1 465:1 512:1 516:1 547:1 556:1 560:1 562:1 582:1 610:1 837:1 880:1 941:1 1015:1 1111:1 1122:1 1155:1 1291:1 1440:1 1453:1 1671:1 1793:1 1981:1 1984:1 2025:1 2456:1 2457:1 2508:1 2575:1 2671:1 3057:1 3165:1 3169:1 3170:1 3171:1 3172:1 3173:1 3174:1 3175:1 3176:1 3177:1 3178:1 3179:1 3180:1 3181:1 3182:1 3183:1 3184:1 3185:1 3186:1 3187:1 3188:1 3189:1 3190:1 3191:1 3192:1 3193:1 3194:1 3195:1 3196:1 
0.005575454288675801 1:1 5:1 8:1 11:1 12:1 13:1 21:1 28:1 31:1 39:1 44:1 45:1 52:1 54:1 56:1 57:1 65:1 66:1 67:1 68:1 69:1 72:1 73:1 74:1 78:1 79:1 80:1 84:1 87:1 91:1 100:1 101:1 106:1 107:1 110:1 111:1 116:1 119:1 121:1 126:1 131:1 132:1 133:1 134:1 135:1 140:1 152:1 153:1 170:1 184:1 185:1 196:1 237:1 242:1 243:1 255:1 256:1 294:1 296:1 317:1 318:1 340:1 341:1 354:1 372:1 376:1 390:1 399:1 445:1 466:1 467:1 491:1 499:1 500:1 513:1 516:1 530:1 532:1 540:1 554:1 567:1 568:1 569:1 580:1 606:1 646:1 774:1 900:1 919:1 926:1 996:1 1255:1 2668:1 3018:1 3197:1 3198:1 3199:1 3200:1 3201:1 3202:1 3203:1 3204:1 3205:1 3206:1 
0.001281070979515728 0:1 1:1 5:1 6:1 8:1 10:1 12:1 13:1 16:1 21:1 22:1 28:1 39:1 44:1 47:1 49:1 50:1 51:1 52:1 54:1 56:1 57:1 65:1 66:1 68:1 73:1 74:1 77:1 78:1 79:1 80:1 82:1 85:1 91:1 95:1 100:1 101:1 106:1 107:1 109:1 110:1 111:1 112:1 113:1 116:1 117:1 121:1 122:1 124:1 126:1 131:1 132:1 133:1 134:1 135:1 136:1 140:1 151:1 158:1 170:1 188:1 191:1 201:1 223:1 229:1 232:1 237:1 242:1 252:1 255:1 256:1 268:1 286:1 288:1 307:1 312:1 318:1 321:1 324:1 340:1 341:1 354:1 364:1 382:1 386:1 392:1 399:1 400:1 410:1 412:1 465:1 478:1 484:1 488:1 499:1 511:1 513:1 527:1 545:1 552:1 555:1 556:1 558:1 561:1 569:1 570:1 572:1 573:1 574:1 580:1 582:1 587:1 590:1 596:1 600:1 606:1 618:1 627:1 630:1 631:1 634:1 640:1 644:1 646:1 650:1 684:1 706:1 709:1 768:1 769:1 819:1 846:1 874:1 934:1 945:1 979:1 1031:1 1034:1 1112:1 1122:1 1176:1 1185:1 1209:1 1258:1 1283:1 1287:1 1329:1 1336:1 1564:1 1574:1 1603:1 2459:1 2703:1 3054:1 3153:1 3207:1 3208:1 3209:1 3210:1 3211:1 3212:1 3213:1 3214:1 3215:1 3216:1 3217:1 3218:1 3219:1 3220:1 3221:1 3222:1 3223:1 3224:1 3225:1 3226:1 3227:1 3228:1 3229:1 3230:1 3231:1 3232:1 3233:1 3234:1 3235:1 
0.00426022075120655 0:1 1:1 4:1 5:1 6:1 10:1 16:1 28:1 39:1 42:1 52:1 54:1 56:1 80:1 82:1 106:1 107:1 110:1 111:1 112:1 116:1 126:1 131:1 163:1 190:1 201:1 250:1 255:1 258:1 261:1 262:1 296:1 305:1 354:1 365:1 373:1 396:1 400:1 407:1 449:1 465:1 466:1 478:1 516:1 547:1 556:1 560:1 609:1 652:1 796:1 837:1 948:1 1037:1 1052:1 1091:1 1096:1 1104:1 1108:1 1174:1 1203:1 1218:1 1393:1 1407:1 1440:1 1455:1 1518:1 1600:1 1671:1 1794:1 1818:1 1870:1 1919:1 1937:1 1981:1 1984:1 2236:1 2456:1 2653:1 2655:1 2659:1 2663:1 2666:1 2680:1 2685:1 3057:1 3088:1 3171:1 3176:1 3177:1 3178:1 3183:1 3186:1 3190:1 3191:1 3192:1 3193:1 3196:1 3345:1 3346:1 3347:1 3348:1 3349:1 3350:1 3351:1 3352:1 3353:1 3354:1 3355:1 3356:1 3357:1 3358:1 3359:1 
0.008122201796716175 0:1 5:1 8:1 11:1 39:1 42:1 51:1 52:1 54:1 56:1 57:1 83:1 84:1 87:1 111:1 113:1 116:1 122:1 131:1 204:1 240:1 307:1 386:1 465:1 513:1 533:1 547:1 551:1 552:1 556:1 633:1 651:1 855:1 872:1 1031:1 1037:1 1043:1 1244:1 1469:1 1485:1 1486:1 1488:1 1490:1 1506:1 1527:1 1591:1 1612:1 1619:1 1624:1 1625:1 1627:1 1630:1 1633:1 1659:1 1670:1 1709:1 1759:1 1837:1 2203:1 2917:1 2932:1 2939:1 2974:1 3281:1 3316:1 3388:1 3389:1 3390:1 3391:1 3392:1 3393:1 3394:1 3395:1 3396:1 3397:1 3398:1 3399:1 3400:1 3401:1 3402:1 3403:1 3404:1 3405:1 
0.009599719176494463 0:1 5:1 10:1 11:1 13:1 21:1 28:1 45:1 47:1 51:1 52:1 54:1 56:1 57:1 58:1 61:1 80:1 87:1 106:1 110:1 111:1 116:1 124:1 126:1 131:1 151:1 188:1 249:1 255:1 256:1 337:1 388:1 392:1 399:1 465:1 502:1 513:1 516:1 530:1 547:1 550:1 556:1 562:1 610:1 640:1 730:1 880:1 1015:1 1091:1 1107:1 1255:1 1291:1 1329:1 1415:1 1417:1 1453:1 1470:1 1518:1 1632:1 1671:1 1685:1 1793:1 1893:1 2025:1 2045:1 2083:1 2447:1 2457:1 2508:1 2575:1 2587:1 2671:1 2858:1 3165:1 3169:1 3170:1 3172:1 3174:1 3175:1 3178:1 3181:1 3185:1 3187:1 3194:1 3195:1 3347:1 3351:1 3355:1 3406:1 3407:1 3408:1 3409:1 3410:1 3411:1 3412:1 3413:1 3414:1 3415:1 3416:1 3417:1 3418:1 3419:1 3420:1 
0.0006239862012831214 0:1 5:1 6:1 8:1 11:1 13:1 16:1 21:1 28:1 41:1 45:1 51:1 52:1 54:1 56:1 57:1 67:1 73:1 80:1 82:1 83:1 84:1 86:1 107:1 109:1 110:1 111:1 112:1 116:1 124:1 126:1 129:1 131:1 133:1 135:1 136:1 144:1 180:1 199:1 201:1 214:1 224:1 232:1 234:1 235:1 271:1 286:1 289:1 296:1 307:1 321:1 322:1 326:1 343:1 354:1 356:1 366:1 368:1 376:1 382:1 386:1 399:1 400:1 407:1 415:1 421:1 425:1 443:1 452:1 465:1 486:1 488:1 499:1 530:1 547:1 550:1 552:1 553:1 562:1 581:1 700:1 738:1 745:1 779:1 860:1 872:1 917:1 938:1 968:1 979:1 1027:1 1029:1 1072:1 1100:1 1101:1 1122:1 1130:1 1242:1 1346:1 1370:1 1377:1 1452:1 1469:1 1485:1 1486:1 1488:1 1490:1 1584:1 1600:1 1628:1 1633:1 1699:1 1713:1 1764:1 1842:1 1983:1 2019:1 2057:1 2121:1 2147:1 2259:1 2419:1 2423:1 2456:1 2477:1 2482:1 2496:1 2504:1 2550:1 2675:1 2691:1 2844:1 2946:1 2960:1 2970:1 3008:1 3039:1 3043:1 3081:1 3092:1 3129:1 3155:1 3407:1 3451:1 3461:1 3472:1 3473:1 3474:1 3475:1 3476:1 3477:1 3478:1 3479:1 3480:1 3481:1 3482:1 3483:1 3484:1 3485:1 3486:1 3487:1 3488:1 3489:1 3490:1 3491:1 3492:1 3493:1 3494:1 3495:1 3496:1 3497:1 3498:1 3499:1 3500:1 3501:1 3502:1 3503:1 3504:1 3505:1 3506:1 3507:1 3508:1 3509:1 3510:1 3511:1 3512:1 3513:1 3514:1 3515:1 3516:1 3517:1 3518:1 3519:1 3520:1 3521:1 3522:1 3523:1 3524:1 3525:1 3526:1 3527:1 3528:1 3529:1 3530:1 3531:1 3532:1 3533:1 3534:1 3535:1 3536:1 
0.002347742514973787 0:1 1:1 5:1 8:1 13:1 16:1 28:1 47:1 50:1 51:1 52:1 54:1 56:1 57:1 71:1 73:1 80:1 83:1 85:1 88:1 90:1 106:1 107:1 108:1 110:1 111:1 116:1 129:1 131:1 135:1 201:1 229:1 235:1 256:1 307:1 312:1 321:1 337:1 343:1 366:1 516:1 534:1 547:1 560:1 569:1 717:1 1037:1 1259:1 1346:1 1428:1 1469:1 1485:1 1486:1 1488:1 1490:1 1685:1 1698:1 1761:1 1782:1 1846:1 2466:1 2564:1 2707:1 2777:1 2781:1 2818:1 2917:1 2987:1 3025:1 3494:1 3495:1 3529:1 3537:1 3538:1 3539:1 3540:1 3541:1 3542:1 3543:1 3544:1 3545:1 3546:1 3547:1 3548:1 3549:1 3550:1 3551:1 3552:1 3553:1 3554:1 3555:1 3556:1 3557:1 3558:1 3559:1 3560:1 3561:1 3562:1 3563:1 3564:1 3565:1 3566:1 3567:1 
0.0002318954018355032 0:1 1:1 5:1 6:1 8:1 11:1 13:1 39:1 42:1 51:1 54:1 56:1 57:1 67:1 73:1 80:1 82:1 106:1 110:1 111:1 112:1 116:1 124:1 126:1 129:1 135:1 136:1 147:1 151:1 189:1 201:1 232:1 245:1 249:1 255:1 256:1 261:1 262:1 307:1 312:1 321:1 343:1 372:1 400:1 407:1 465:1 484:1 509:1 513:1 514:1 516:1 530:1 555:1 565:1 609:1 610:1 683:1 860:1 899:1 936:1 938:1 941:1 948:1 966:1 992:1 1048:1 1151:1 1189:1 1244:1 1368:1 1390:1 1394:1 1440:1 1461:1 1469:1 1584:1 1600:1 1756:1 1883:1 2237:1 2456:1 2457:1 2527:1 2653:1 2671:1 2707:1 2844:1 2863:1 3108:1 3177:1 3266:1 3380:1 3388:1 3445:1 3568:1 3569:1 3570:1 3571:1 3572:1 3573:1 3574:1 3575:1 3576:1 3577:1 3578:1 3579:1 3580:1 3581:1 3582:1 3583:1 3584:1 3585:1 3586:1 3587:1 3588:1 3589:1 3590:1 3591:1 3592:1 3593:1 3594:1 3595:1 3596:1 3597:1 3598:1 3599:1 3600:1 3601:1 3602:1 3603:1 
6.760209777969873e-05 0:1 1:1 5:1 39:1 42:1 45:1 51:1 54:1 73:1 80:1 82:1 86:1 103:1 104:1 105:1 110:1 111:1 112:1 116:1 126:1 135:1 188:1 199:1 201:1 232:1 255:1 280:1 296:1 312:1 321:1 376:1 399:1 412:1 465:1 502:1 509:1 516:1 526:1 550:1 555:1 573:1 576:1 595:1 606:1 627:1 633:1 723:1 734:1 855:1 938:1 1096:1 1125:1 1145:1 1377:1 1411:1 1584:1 1921:1 1960:1 2082:1 2419:1 2457:1 2466:1 2926:1 2946:1 3000:1 3147:1 3149:1 3264:1 3312:1 3381:1 3604:1 3605:1 3606:1 3607:1 3608:1 3609:1 3610:1 3611:1 3612:1 3613:1 3614:1 3615:1 3616:1 3617:1 3618:1 3619:1 3620:1 3621:1 3622:1 3623:1 3624:1 3625:1 3626:1 3627:1 3628:1 3629:1 3630:1 3631:1 3632:1 3633:1 3634:1 
0.0002454091927150934 0:1 4:1 5:1 10:1 11:1 16:1 28:1 42:1 45:1 51:1 54:1 56:1 57:1 64:1 73:1 80:1 82:1 84:1 86:1 91:1 98:1 104:1 105:1 109:1 110:1 111:1 116:1 126:1 129:1 131:1 135:1 136:1 188:1 199:1 201:1 232:1 255:1 267:1 278:1 280:1 289:1 296:1 312:1 321:1 367:1 376:1 377:1 399:1 400:1 407:1 412:1 502:1 509:1 514:1 516:1 526:1 547:1 555:1 556:1 558:1 573:1 591:1 597:1 601:1 606:1 612:1 695:1 700:1 723:1 839:1 855:1 948:1 1031:1 1125:1 1145:1 1185:1 1194:1 1199:1 1315:1 1377:1 1425:1 1453:1 1530:1 1584:1 1613:1 1681:1 1793:1 1835:1 1921:1 1960:1 2026:1 2082:1 2109:1 2313:1 2359:1 2447:1 2457:1 2466:1 2761:1 2773:1 2778:1 2894:1 2940:1 3005:1 3149:1 3163:1 3182:1 3264:1 3312:1 3381:1 3544:1 3604:1 3605:1 3608:1 3609:1 3614:1 3617:1 3619:1 3621:1 3622:1 3623:1 3624:1 3627:1 3629:1 3630:1 3633:1 3634:1 3682:1 3683:1 3684:1 3685:1 3686:1 3687:1 3688:1 3689:1 3690:1 3691:1 3692:1 3693:1 3694:1 3695:1 3696:1 3697:1 3698:1 3699:1 
1 0:1 5:1 10:1 21:1 28:1 52:1 54:1 80:1 82:1 110:1 111:1 116:1 131:1 400:1 484:1 516:1 547:1 573:1 577:1 609:1 679:1 941:1 1081:1 1189:1 1295:1 1341:1 1370:1 1415:1 1428:1 1435:1 1518:1 1589:1 1754:1 1767:1 1775:1 1796:1 1819:1 1834:1 1846:1 1848:1 1871:1 1881:1 1901:1 1945:1 1951:1 1991:1 2028:1 2079:1 2087:1 3223:1 3674:1 3700:1 3701:1 3702:1 3703:1 3704:1 3705:1 3706:1 3707:1 3708:1 3709:1 
0.0003982918043223961 0:1 1:1 5:1 8:1 9:1 10:1 11:1 16:1 21:1 39:1 42:1 48:1 51:1 52:1 54:1 56:1 57:1 67:1 71:1 72:1 80:1 82:1 85:1 86:1 87:1 101:1 106:1 110:1 111:1 116:1 126:1 129:1 131:1 135:1 147:1 151:1 153:1 160:1 199:1 201:1 214:1 296:1 312:1 313:1 322:1 343:1 349:1 372:1 377:1 378:1 393:1 399:1 407:1 419:1 465:1 484:1 486:1 487:1 488:1 509:1 511:1 513:1 514:1 516:1 525:1 540:1 547:1 557:1 560:1 562:1 573:1 595:1 610:1 860:1 946:1 1023:1 1081:1 1125:1 1177:1 1199:1 1244:1 1329:1 1417:1 1450:1 1469:1 1515:1 1568:1 1574:1 1612:1 1630:1 1640:1 1793:1 1859:1 1896:1 2026:1 2238:1 2461:1 2548:1 2760:1 2898:1 2929:1 2940:1 2984:1 3000:1 3176:1 3341:1 3383:1 3710:1 3711:1 3712:1 3713:1 3714:1 3715:1 3716:1 3717:1 3718:1 3719:1 3720:1 3721:1 3722:1 3723:1 3724:1 3725:1 3726:1 3727:1 3728:1 3729:1 3730:1 3731:1 3732:1 3733:1 3734:1 3735:1 3736:1 3737:1 3738:1 3739:1 3740:1 3741:1 3742:1 3743:1 3744:1 3745:1 3746:1 3747:1 3748:1 3749:1 3750:1 3751:1 3752:1 3753:1 3754:1 3755:1 3756:1 3757:1 3758:1 3759:1 3760:1 3761:1 3762:1 3763:1 3764:1 3765:1 3766:1 3767:1 3768:1 
0.0001758593466735785 0:1 1:1 4:1 5:1 8:1 11:1 13:1 16:1 17:1 19:1 21:1 30:1 39:1 45:1 47:1 51:1 52:1 54:1 56:1 57:1 64:1 67:1 69:1 72:1 73:1 75:1 80:1 82:1 83:1 84:1 86:1 87:1 91:1 106:1 109:1 110:1 111:1 112:1 116:1 124:1 126:1 129:1 131:1 135:1 136:1 199:1 201:1 213:1 245:1 253:1 255:1 256:1 280:1 283:1 307:1 312:1 321:1 343:1 346:1 358:1 372:1 375:1 392:1 393:1 399:1 400:1 407:1 439:1 453:1 465:1 469:1 486:1 487:1 506:1 509:1 510:1 512:1 513:1 514:1 516:1 530:1 533:1 534:1 539:1 551:1 552:1 555:1 557:1 558:1 596:1 652:1 653:1 693:1 695:1 716:1 732:1 750:1 755:1 808:1 855:1 872:1 938:1 941:1 973:1 994:1 1037:1 1053:1 1104:1 1149:1 1177:1 1244:1 1255:1 1294:1 1322:1 1327:1 1425:1 1436:1 1469:1 1485:1 1486:1 1488:1 1490:1 1494:1 1559:1 1562:1 1574:1 1583:1 1588:1 1593:1 1600:1 1609:1 1618:1 1622:1 1628:1 1631:1 1633:1 1638:1 1639:1 1654:1 1671:1 1685:1 1753:1 1762:1 1862:1 1870:1 1885:1 1928:1 1984:1 2087:1 2105:1 2174:1 2292:1 2405:1 2418:1 2501:1 2506:1 2572:1 2863:1 2888:1 2914:1 2938:1 2940:1 2944:1 2947:1 2949:1 2951:1 2952:1 2953:1 2957:1 2958:1 2959:1 2960:1 2961:1 2965:1 2967:1 2968:1 2969:1 2970:1 2971:1 2973:1 2974:1 2975:1 2980:1 3000:1 3112:1 3163:1 3263:1 3290:1 3295:1 3312:1 3389:1 3398:1 3454:1 3517:1 3615:1 3630:1 3742:1 3769:1 3770:1 3771:1 3772:1 3773:1 3774:1 3775:1 3776:1 3777:1 3778:1 3779:1 3780:1 3781:1 3782:1 3783:1 3784:1 3785:1 3786:1 3787:1 3788:1 3789:1 3790:1 3791:1 3792:1 3793:1 3794:1 3795:1 3796:1 3797:1 3798:1 3799:1 3800:1 3801:1 3802:1 3803:1 3804:1 3805:1 3806:1 3807:1 3808:1 3809:1 3810:1 3811:1 3812:1 3813:1 3814:1 3815:1 3816:1 3817:1 3818:1 3819:1 3820:1 3821:1 3822:1 3823:1 3824:1 3825:1 3826:1 3827:1 
0.002946685433407514 0:1 5:1 6:1 8:1 10:1 11:1 22:1 28:1 45:1 52:1 54:1 56:1 73:1 80:1 83:1 101:1 106:1 110:1 111:1 116:1 126:1 131:1 135:1 136:1 153:1 154:1 201:1 278:1 286:1 312:1 321:1 335:1 343:1 377:1 399:1 400:1 465:1 484:1 516:1 541:1 562:1 576:1 581:1 595:1 606:1 640:1 645:1 948:1 1095:1 1140:1 1238:1 1245:1 1273:1 1370:1 1469:1 1495:1 1517:1 1518:1 1550:1 1588:1 1646:1 1655:1 1678:1 1679:1 1846:1 2069:1 2092:1 2129:1 2252:1 2404:1 2649:1 2909:1 3001:1 3149:1 3445:1 3535:1 3855:1 3856:1 3857:1 3858:1 3859:1 3860:1 3861:1 3862:1 3863:1 3864:1 3865:1 3866:1 3867:1 3868:1 3869:1 3870:1 3871:1 3872:1 3873:1 3874:1 3875:1 3876:1 3877:1 3878:1 3879:1 3880:1 3881:1 3882:1 3883:1 3884:1 
0.02721695467811778 0:1 4:1 10:1 20:1 28:1 39:1 43:1 51:1 54:1 56:1 71:1 80:1 84:1 116:1 124:1 131:1 204:1 205:1 225:1 278:1 300:1 421:1 513:1 548:1 551:1 644:1 650:1 700:1 718:1 750:1 1336:1 1469:1 1629:1 2262:1 3108:1 3598:1 3674:1 3885:1 3886:1 3887:1 3888:1 3889:1 3890:1 3891:1 3892:1 3893:1 3894:1 3895:1 3896:1 3897:1 3898:1 3899:1 
0.00319943211564615 0:1 4:1 5:1 6:1 10:1 11:1 13:1 17:1 27:1 28:1 39:1 47:1 54:1 56:1 57:1 58:1 61:1 67:1 73:1 80:1 82:1 87:1 106:1 110:1 111:1 116:1 131:1 188:1 199:1 235:1 255:1 256:1 262:1 307:1 356:1 388:1 407:1 425:1 465:1 486:1 512:1 516:1 532:1 547:1 562:1 565:1 582:1 610:1 747:1 879:1 880:1 941:1 1015:1 1155:1 1291:1 1376:1 1402:1 1453:1 1518:1 1600:1 1756:1 1791:1 1793:1 1981:1 2009:1 2025:1 2457:1 2508:1 2575:1 2671:1 2825:1 2980:1 3165:1 3169:1 3170:1 3172:1 3173:1 3174:1 3175:1 3178:1 3180:1 3181:1 3182:1 3184:1 3185:1 3187:1 3188:1 3189:1 3190:1 3194:1 3195:1 3347:1 3351:1 3355:1 3591:1 3615:1 3757:1 3774:1 3850:1 3900:1 3901:1 3902:1 3903:1 3904:1 3905:1 3906:1 3907:1 3908:1 3909:1 3910:1 3911:1 
0.009875352109185234 0:1 1:1 10:1 17:1 39:1 51:1 54:1 57:1 78:1 80:1 84:1 87:1 106:1 110:1 111:1 116:1 129:1 151:1 189:1 199:1 205:1 256:1 278:1 312:1 321:1 393:1 400:1 509:1 512:1 519:1 550:1 556:1 559:1 561:1 562:1 595:1 635:1 681:1 839:1 866:1 1048:1 1095:1 1194:1 1329:1 1372:1 1382:1 1440:1 1680:1 1870:1 2480:1 2921:1 3795:1 3827:1 3891:1 3912:1 3913:1 3914:1 3915:1 3916:1 3917:1 3918:1 
0.007123330935101362 0:1 1:1 5:1 6:1 8:1 11:1 13:1 17:1 19:1 21:1 22:1 28:1 42:1 45:1 50:1 51:1 52:1 54:1 56:1 57:1 71:1 73:1 74:1 80:1 82:1 84:1 85:1 87:1 106:1 108:1 109:1 110:1 111:1 112:1 116:1 124:1 135:1 144:1 146:1 151:1 155:1 188:1 190:1 199:1 201:1 255:1 256:1 335:1 343:1 368:1 400:1 412:1 439:1 465:1 466:1 474:1 480:1 484:1 486:1 499:1 512:1 513:1 514:1 525:1 530:1 547:1 549:1 555:1 557:1 562:1 595:1 609:1 610:1 618:1 747:1 775:1 860:1 922:1 938:1 943:1 948:1 993:1 996:1 1037:1 1108:1 1199:1 1244:1 1245:1 1254:1 1255:1 1265:1 1293:1 1298:1 1370:1 1374:1 1393:1 1414:1 1453:1 1495:1 1544:1 1584:1 1726:1 1868:1 1880:1 1896:1 1908:1 2220:1 2410:1 2456:1 2576:1 2591:1 2653:1 2661:1 2746:1 2898:1 2946:1 3140:1 3176:1 3341:1 3386:1 3919:1 3920:1 3921:1 3922:1 3923:1 3924:1 3925:1 3926:1 3927:1 3928:1 3929:1 3930:1 3931:1 3932:1 3933:1 3934:1 3935:1 3936:1 3937:1 3938:1 3939:1 3940:1 3941:1 3942:1 3943:1 3944:1 3945:1 3946:1 3947:1 3948:1 
0.003188457358144481 0:1 1:1 11:1 13:1 17:1 39:1 51:1 54:1 56:1 70:1 71:1 80:1 83:1 86:1 87:1 101:1 106:1 107:1 110:1 111:1 113:1 116:1 126:1 131:1 154:1 189:1 199:1 201:1 249:1 255:1 278:1 283:1 296:1 321:1 366:1 378:1 392:1 400:1 465:1 484:1 513:1 514:1 515:1 516:1 527:1 595:1 610:1 645:1 793:1 996:1 1015:1 1035:1 1042:1 1081:1 1095:1 1108:1 1222:1 1324:1 1402:1 1428:1 1464:1 1469:1 1485:1 1486:1 1488:1 1490:1 1517:1 1655:1 1671:1 1735:1 1761:1 1791:1 1967:1 2003:1 2237:1 2336:1 2539:1 2693:1 2860:1 2863:1 2881:1 3443:1 3445:1 3591:1 3664:1 3778:1 3811:1 3949:1 3950:1 3951:1 3952:1 3953:1 3954:1 3955:1 3956:1 3957:1 3958:1 3959:1 3960:1 3961:1 3962:1 3963:1 3964:1 3965:1 3966:1 3967:1 3968:1 
0.006290219739900711 0:1 3:1 5:1 8:1 10:1 16:1 21:1 22:1 23:1 25:1 26:1 28:1 31:1 33:1 39:1 44:1 45:1 47:1 48:1 49:1 50:1 51:1 52:1 54:1 56:1 57:1 58:1 61:1 63:1 64:1 65:1 66:1 67:1 68:1 71:1 73:1 76:1 77:1 80:1 84:1 86:1 90:1 91:1 92:1 94:1 96:1 101:1 105:1 107:1 108:1 109:1 110:1 111:1 112:1 113:1 116:1 117:1 119:1 122:1 126:1 127:1 128:1 131:1 135:1 136:1 199:1 258:1 314:1 324:1 343:1 400:1 410:1 420:1 465:1 490:1 543:1 551:1 556:1 634:1 673:1 709:1 752:1 1136:1 1322:1 1494:1 1503:1 1810:1 2594:1 2974:1 3083:1 3088:1 3186:1 3310:1 4537:1 4538:1 
0.002581978081523683 0:1 1:1 5:1 11:1 16:1 22:1 28:1 37:1 39:1 51:1 54:1 56:1 57:1 70:1 73:1 80:1 83:1 106:1 110:1 111:1 116:1 120:1 124:1 126:1 129:1 131:1 135:1 136:1 155:1 158:1 190:1 199:1 231:1 250:1 255:1 256:1 275:1 307:1 316:1 321:1 343:1 349:1 357:1 392:1 407:1 413:1 415:1 465:1 486:1 513:1 516:1 530:1 552:1 556:1 560:1 561:1 562:1 576:1 582:1 586:1 609:1 610:1 618:1 622:1 627:1 653:1 685:1 730:1 734:1 778:1 862:1 941:1 1007:1 1031:1 1037:1 1050:1 1123:1 1140:1 1298:1 1329:1 1336:1 1368:1 1377:1 1393:1 1404:1 1436:1 1440:1 1469:1 1489:1 1518:1 1580:1 1588:1 1628:1 1685:1 1859:1 1918:1 2140:1 2311:1 2457:1 2649:1 2653:1 2823:1 2874:1 2917:1 2962:1 3163:1 3529:1 3597:1 3617:1 3625:1 4478:1 4480:1 4545:1 4546:1 4547:1 4548:1 4549:1 4550:1 4551:1 4552:1 4553:1 4554:1 4555:1 4556:1 4557:1 4558:1 4559:1 4560:1 4561:1 4562:1 4563:1 4564:1 4565:1 4566:1 4567:1 4568:1 4569:1 4570:1 4571:1 4572:1 4573:1 4574:1 4575:1 4576:1 4577:1 4578:1 4579:1 4580:1 4581:1 4582:1 4583:1 4584:1 4585:1 4586:1 4587:1 4588:1 4589:1 4590:1 4591:1 4592:1 4593:1 4594:1 4595:1 4596:1 4597:1 
0.000674907133076312 0:1 1:1 3:1 4:1 5:1 10:1 11:1 16:1 17:1 19:1 21:1 22:1 28:1 37:1 39:1 51:1 54:1 56:1 57:1 70:1 73:1 76:1 80:1 82:1 83:1 85:1 106:1 110:1 111:1 112:1 116:1 124:1 126:1 129:1 131:1 146:1 155:1 158:1 190:1 193:1 201:1 231:1 250:1 255:1 256:1 275:1 285:1 305:1 307:1 313:1 316:1 321:1 343:1 349:1 365:1 378:1 392:1 407:1 413:1 416:1 465:1 486:1 513:1 516:1 530:1 532:1 533:1 552:1 556:1 560:1 561:1 562:1 576:1 586:1 618:1 622:1 627:1 653:1 677:1 685:1 734:1 778:1 862:1 1007:1 1031:1 1052:1 1091:1 1096:1 1108:1 1122:1 1123:1 1140:1 1298:1 1329:1 1368:1 1377:1 1393:1 1404:1 1407:1 1436:1 1440:1 1469:1 1495:1 1518:1 1580:1 1588:1 1600:1 1628:1 1632:1 1685:1 1779:1 1870:1 1937:1 2140:1 2236:1 2311:1 2501:1 2509:1 2552:1 2595:1 2649:1 2653:1 2655:1 2659:1 2663:1 2666:1 2680:1 2685:1 2855:1 2874:1 2917:1 2962:1 3042:1 3163:1 3177:1 3295:1 3312:1 3380:1 3529:1 3597:1 3617:1 3625:1 3682:1 4447:1 4545:1 4550:1 4553:1 4554:1 4556:1 4557:1 4558:1 4559:1 4560:1 4562:1 4564:1 4565:1 4567:1 4570:1 4571:1 4572:1 4573:1 4574:1 4576:1 4578:1 4579:1 4581:1 4582:1 4584:1 4586:1 4587:1 4588:1 4592:1 4593:1 4594:1 4598:1 4599:1 4600:1 4601:1 4602:1 4603:1 4604:1 4605:1 4606:1 4607:1 4608:1 4609:1 4610:1 4611:1 4612:1 4613:1 4614:1 4615:1 4616:1 4617:1 4618:1 4619:1 4620:1 
0.002571672161621036 0:1 1:1 4:1 5:1 6:1 11:1 13:1 16:1 21:1 39:1 51:1 54:1 56:1 57:1 71:1 77:1 80:1 86:1 106:1 110:1 111:1 116:1 124:1 126:1 129:1 152:1 175:1 191:1 199:1 233:1 235:1 245:1 251:1 299:1 307:1 312:1 321:1 343:1 376:1 382:1 400:1 407:1 450:1 465:1 469:1 477:1 499:1 511:1 516:1 530:1 534:1 549:1 551:1 555:1 561:1 576:1 625:1 627:1 642:1 683:1 685:1 752:1 869:1 900:1 922:1 1177:1 1199:1 1254:1 1327:1 1330:1 1343:1 1383:1 1414:1 1415:1 1453:1 1469:1 1495:1 1671:1 1698:1 1717:1 1726:1 1875:1 2000:1 2584:1 2746:1 2802:1 2874:1 3072:1 3103:1 3464:1 3510:1 3982:1 4200:1 4233:1 4334:1 4336:1 4337:1 4338:1 4339:1 4344:1 4345:1 4346:1 4347:1 4348:1 4507:1 4621:1 4622:1 4623:1 4624:1 4625:1 4626:1 4627:1 4628:1 4629:1 
0.001255747697922892 0:1 4:1 5:1 10:1 11:1 16:1 21:1 28:1 39:1 51:1 52:1 54:1 56:1 57:1 64:1 73:1 80:1 82:1 84:1 85:1 91:1 98:1 104:1 105:1 109:1 110:1 111:1 116:1 129:1 131:1 132:1 136:1 138:1 155:1 199:1 229:1 232:1 233:1 245:1 289:1 307:1 321:1 349:1 367:1 377:1 392:1 399:1 400:1 407:1 412:1 469:1 486:1 509:1 511:1 513:1 514:1 516:1 527:1 530:1 547:1 552:1 555:1 556:1 558:1 560:1 591:1 597:1 601:1 612:1 653:1 695:1 700:1 718:1 776:1 815:1 862:1 938:1 948:1 1031:1 1034:1 1194:1 1199:1 1225:1 1315:1 1425:1 1469:1 1530:1 1613:1 1659:1 1793:1 1921:1 2026:1 2109:1 2116:1 2313:1 2359:1 2447:1 2660:1 2686:1 2761:1 2792:1 2894:1 2924:1 2940:1 3000:1 3005:1 3046:1 3163:1 3182:1 3264:1 3544:1 3617:1 3627:1 3630:1 3682:1 3684:1 3685:1 3686:1 3687:1 3688:1 3689:1 3691:1 3692:1 3693:1 3694:1 3695:1 3696:1 3698:1 3699:1 3890:1 4042:1 4284:1 4673:1 4674:1 4675:1 4676:1 4677:1 4678:1 4679:1 4680:1 4681:1 4682:1 4683:1 4684:1 4685:1 4686:1 4687:1 4688:1 4689:1 4690:1 4691:1 4692:1 4693:1 4694:1 4695:1 
0.007730696561136188 0:1 1:1 10:1 16:1 17:1 21:1 22:1 28:1 50:1 51:1 52:1 54:1 57:1 83:1 84:1 111:1 116:1 131:1 135:1 136:1 138:1 157:1 229:1 312:1 342:1 413:1 465:1 490:1 506:1 511:1 612:1 652:1 673:1 723:1 1023:1 1043:1 1464:1 1469:1 1471:1 1726:1 1810:1 1846:1 2650:1 2651:1 3273:1 4696:1 4697:1 4698:1 4699:1 4700:1 4701:1 4702:1 4703:1 4704:1 4705:1 4706:1 4707:1 4708:1 
0.0005108398725316429 0:1 5:1 8:1 10:1 11:1 16:1 22:1 28:1 51:1 54:1 56:1 65:1 66:1 68:1 80:1 84:1 86:1 101:1 106:1 110:1 111:1 116:1 122:1 131:1 132:1 135:1 300:1 304:1 312:1 313:1 374:1 376:1 465:1 466:1 490:1 509:1 513:1 516:1 555:1 604:1 673:1 681:1 771:1 948:1 1031:1 1048:1 1081:1 1517:1 1810:1 1862:1 1952:1 2016:1 2048:1 2512:1 2569:1 2572:1 2601:1 2604:1 2605:1 2606:1 2607:1 2610:1 2612:1 2615:1 2623:1 2624:1 2625:1 2626:1 2627:1 2628:1 2634:1 2635:1 2637:1 2638:1 2645:1 2646:1 2996:1 3208:1 4709:1 
0.0001599320000790847 0:1 5:1 8:1 10:1 11:1 13:1 16:1 17:1 21:1 28:1 39:1 50:1 51:1 52:1 54:1 56:1 71:1 72:1 80:1 83:1 84:1 106:1 107:1 108:1 110:1 111:1 116:1 129:1 131:1 135:1 189:1 190:1 193:1 201:1 206:1 235:1 307:1 321:1 337:1 366:1 392:1 516:1 534:1 547:1 676:1 717:1 723:1 768:1 866:1 872:1 968:1 1037:1 1259:1 1288:1 1346:1 1376:1 1428:1 1469:1 1485:1 1486:1 1488:1 1490:1 1594:1 1646:1 1647:1 1658:1 1664:1 1670:1 1678:1 1679:1 1681:1 1684:1 1685:1 1761:1 1782:1 1846:1 2466:1 2482:1 2564:1 2707:1 2818:1 3025:1 3042:1 3494:1 3495:1 3529:1 3537:1 3539:1 3541:1 3544:1 3545:1 3546:1 3548:1 3550:1 3551:1 3554:1 3559:1 3560:1 3562:1 3563:1 3565:1 3567:1 3778:1 3811:1 4060:1 4688:1 4782:1 4783:1 4784:1 4785:1 4786:1 4787:1 4788:1 4789:1 4790:1 4791:1 4792:1 
0.005675269510478967 0:1 5:1 8:1 11:1 16:1 19:1 42:1 47:1 51:1 52:1 54:1 56:1 57:1 58:1 61:1 82:1 106:1 109:1 110:1 111:1 116:1 129:1 131:1 135:1 137:1 180:1 189:1 199:1 212:1 214:1 253:1 256:1 307:1 321:1 343:1 348:1 354:1 357:1 386:1 407:1 425:1 465:1 511:1 514:1 516:1 556:1 558:1 560:1 562:1 563:1 569:1 618:1 650:1 695:1 707:1 915:1 1081:1 1199:1 1255:1 1259:1 1273:1 1336:1 1342:1 1404:1 1434:1 1440:1 1469:1 1588:1 1698:1 1727:1 1793:1 1995:1 2026:1 2203:1 2213:1 2292:1 2480:1 2650:1 2700:1 3299:1 3446:1 3542:1 3598:1 3658:1 3899:1 4330:1 4503:1 4504:1 4511:1 4792:1 4806:1 4813:1 4817:1 4819:1 4831:1 4832:1 4844:1 5009:1 5074:1 5126:1 5136:1 5137:1 5138:1 5139:1 5140:1 5141:1 
0.0008842505006480289 0:1 5:1 8:1 10:1 13:1 16:1 17:1 19:1 22:1 47:1 51:1 52:1 54:1 56:1 57:1 58:1 61:1 71:1 80:1 82:1 83:1 94:1 106:1 109:1 110:1 111:1 116:1 131:1 135:1 136:1 137:1 148:1 151:1 158:1 165:1 180:1 199:1 212:1 214:1 241:1 253:1 256:1 294:1 307:1 343:1 348:1 354:1 357:1 363:1 376:1 386:1 407:1 425:1 465:1 511:1 514:1 516:1 527:1 549:1 550:1 555:1 556:1 558:1 560:1 562:1 563:1 569:1 570:1 572:1 618:1 640:1 650:1 673:1 695:1 819:1 862:1 917:1 979:1 1081:1 1105:1 1199:1 1255:1 1259:1 1273:1 1298:1 1336:1 1342:1 1404:1 1414:1 1415:1 1469:1 1538:1 1588:1 1644:1 1645:1 1652:1 1653:1 1656:1 1681:1 1683:1 1698:1 1717:1 1727:1 1793:1 2026:1 2203:1 2225:1 2292:1 2650:1 2700:1 2903:1 3380:1 3446:1 3542:1 3598:1 3658:1 3899:1 3950:1 4233:1 4319:1 4336:1 4337:1 4338:1 4339:1 4344:1 4345:1 4346:1 4347:1 4348:1 4475:1 4503:1 4504:1 4792:1 4806:1 4813:1 4817:1 4819:1 4831:1 4832:1 4844:1 5009:1 5136:1 5137:1 5138:1 5139:1 5140:1 5141:1 5142:1 5143:1 5144:1 5145:1 5146:1 5147:1 5148:1 5149:1 5150:1 5151:1 5152:1 5153:1 5154:1 5155:1 5156:1 5157:1 
0.003897835922572542 0:1 5:1 6:1 10:1 11:1 16:1 21:1 37:1 39:1 40:1 41:1 51:1 54:1 56:1 57:1 62:1 63:1 73:1 80:1 84:1 89:1 109:1 110:1 111:1 116:1 124:1 126:1 129:1 142:1 155:1 177:1 255:1 267:1 307:1 321:1 330:1 335:1 376:1 399:1 400:1 465:1 466:1 485:1 499:1 502:1 509:1 512:1 516:1 533:1 560:1 565:1 615:1 680:1 815:1 886:1 946:1 1045:1 1053:1 1091:1 1095:1 1175:1 1177:1 1205:1 1244:1 1257:1 1295:1 1354:1 1372:1 1407:1 1469:1 1497:1 1517:1 1589:1 1636:1 1644:1 1645:1 1652:1 1653:1 1683:1 1726:1 1807:1 1882:1 1896:1 1937:1 1981:1 2007:1 2009:1 2091:1 2105:1 2109:1 2194:1 2290:1 2532:1 2588:1 2625:1 2750:1 2836:1 2877:1 2901:1 2907:1 3008:1 3037:1 3055:1 3080:1 3276:1 3582:1 3762:1 3840:1 3871:1 3907:1 3980:1 4951:1 5185:1 5186:1 5187:1 5188:1 5189:1 5190:1 5191:1 5192:1 5193:1 5194:1 5195:1 5196:1 5197:1 5198:1 5199:1 5200:1 5201:1 5202:1 5203:1 5204:1 5205:1 5206:1 5207:1 5208:1 5209:1 5210:1 5211:1 5212:1 5213:1 5214:1 5215:1 5216:1 5217:1 5218:1 5219:1 5220:1 
0.002270156443318562 0:1 1:1 4:1 39:1 51:1 54:1 80:1 84:1 124:1 126:1 128:1 129:1 131:1 136:1 313:1 354:1 362:1 366:1 512:1 532:1 540:1 547:1 550:1 555:1 643:1 698:1 706:1 732:1 962:1 1083:1 1122:1 1179:1 1327:1 1329:1 1469:1 1527:1 1654:1 1659:1 1803:1 1868:1 1917:1 2002:1 2668:1 2700:1 2964:1 3446:1 3542:1 3621:1 4127:1 4278:1 4803:1 4812:1 4830:1 4833:1 5248:1 5269:1 5361:1 5362:1 5363:1 5364:1 5365:1 5366:1 
0.007625792690826266 0:1 4:1 5:1 16:1 17:1 28:1 39:1 41:1 50:1 51:1 52:1 54:1 56:1 57:1 80:1 83:1 84:1 106:1 110:1 111:1 116:1 117:1 135:1 199:1 201:1 205:1 256:1 278:1 299:1 307:1 343:1 399:1 400:1 409:1 465:1 473:1 513:1 534:1 552:1 556:1 557:1 559:1 565:1 576:1 581:1 618:1 625:1 634:1 700:1 760:1 862:1 938:1 939:1 992:1 1010:1 1127:1 1194:1 1377:1 1613:1 1632:1 1689:1 2116:1 2441:1 2584:1 2614:1 2656:1 2746:1 2999:1 3473:1 3621:1 3662:1 3782:1 4259:1 4328:1 4361:1 5423:1 5424:1 5425:1 5426:1 5427:1 5428:1 5429:1 5430:1 5431:1 5432:1 5433:1 5434:1 5435:1 5436:1 
0.003043754372634071 0:1 5:1 6:1 8:1 13:1 28:1 47:1 51:1 73:1 80:1 87:1 106:1 109:1 110:1 111:1 112:1 116:1 124:1 126:1 128:1 131:1 151:1 225:1 256:1 286:1 299:1 307:1 399:1 400:1 407:1 425:1 445:1 650:1 750:1 872:1 937:1 1082:1 1105:1 1244:1 1436:1 1443:1 1469:1 1494:1 1495:1 1574:1 1583:1 1610:1 1753:1 1928:1 2087:1 2174:1 2282:1 2569:1 2572:1 2573:1 2574:1 2589:1 2650:1 2909:1 3001:1 3290:1 3427:1 3640:1 3777:1 3785:1 3786:1 3787:1 3788:1 3789:1 3791:1 3793:1 3794:1 3800:1 3816:1 3819:1 3821:1 3822:1 4438:1 4506:1 5286:1 5541:1 5542:1 5543:1 5544:1 5545:1 5546:1 5547:1 
0.001366560785808297 0:1 1:1 4:1 5:1 6:1 8:1 10:1 11:1 13:1 21:1 32:1 38:1 39:1 51:1 52:1 54:1 56:1 57:1 74:1 80:1 82:1 83:1 84:1 85:1 86:1 87:1 106:1 109:1 110:1 111:1 113:1 116:1 122:1 124:1 126:1 131:1 135:1 144:1 151:1 199:1 201:1 234:1 249:1 255:1 256:1 264:1 289:1 300:1 304:1 307:1 315:1 321:1 343:1 382:1 399:1 400:1 407:1 410:1 413:1 416:1 425:1 451:1 465:1 472:1 480:1 484:1 486:1 497:1 509:1 511:1 513:1 533:1 542:1 547:1 550:1 555:1 556:1 561:1 618:1 627:1 661:1 723:1 730:1 788:1 802:1 839:1 868:1 886:1 944:1 987:1 1042:1 1083:1 1091:1 1219:1 1255:1 1287:1 1342:1 1370:1 1384:1 1397:1 1411:1 1417:1 1453:1 1469:1 1518:1 1643:1 1695:1 1741:1 1761:1 1767:1 1881:1 1892:1 2057:1 2159:1 2223:1 2404:1 2432:1 2457:1 2576:1 2587:1 2680:1 2707:1 2715:1 2769:1 2876:1 2896:1 2913:1 2920:1 2941:1 3042:1 3104:1 3106:1 3133:1 3192:1 3194:1 3210:1 3228:1 3295:1 3341:1 3535:1 3597:1 3632:1 3682:1 3684:1 3691:1 3698:1 3803:1 3847:1 3850:1 3895:1 3922:1 4168:1 4169:1 4278:1 4334:1 4470:1 4532:1 4625:1 4808:1 4952:1 5016:1 5017:1 5028:1 5035:1 5036:1 5038:1 5043:1 5045:1 5047:1 5049:1 5055:1 5056:1 5107:1 5548:1 5549:1 5550:1 5551:1 5552:1 5553:1 5554:1 5555:1 5556:1 5557:1 5558:1 5559:1 5560:1 5561:1 5562:1 5563:1 5564:1 5565:1 5566:1 5567:1 5568:1 5569:1 5570:1 5571:1 5572:1 5573:1 5574:1 5575:1 5576:1 5577:1 5578:1 5579:1 5580:1 5581:1 5582:1 5583:1 5584:1 5585:1 5586:1 5587:1 5588:1 5589:1 5590:1 5591:1 
0.01846950261053021 0:1 5:1 8:1 16:1 21:1 30:1 56:1 74:1 80:1 82:1 84:1 110:1 111:1 116:1 126:1 131:1 151:1 160:1 335:1 365:1 469:1 509:1 512:1 513:1 516:1 550:1 872:1 885:1 898:1 956:1 1001:1 1052:1 1189:1 1347:1 1435:1 1469:1 1485:1 1486:1 1488:1 1490:1 1589:1 1762:1 1797:1 1800:1 1891:1 1918:1 1948:1 2213:1 2738:1 3017:1 3938:1 4733:1 5162:1 5166:1 5168:1 5182:1 5608:1 5610:1 5611:1 5612:1 5651:1 5665:1 5668:1 5670:1 5671:1 5672:1 5673:1 5674:1 5675:1 5676:1 
0.002317868926936 0:1 1:1 5:1 8:1 11:1 14:1 16:1 21:1 39:1 51:1 54:1 56:1 57:1 69:1 74:1 80:1 82:1 86:1 87:1 106:1 110:1 111:1 112:1 116:1 126:1 129:1 134:1 135:1 136:1 151:1 193:1 199:1 201:1 232:1 233:1 235:1 255:1 256:1 266:1 297:1 300:1 307:1 312:1 321:1 335:1 343:1 366:1 375:1 400:1 412:1 435:1 499:1 511:1 516:1 552:1 556:1 562:1 618:1 625:1 640:1 683:1 717:1 919:1 938:1 940:1 1074:1 1083:1 1100:1 1136:1 1189:1 1330:1 1417:1 1448:1 1469:1 1502:1 1518:1 1598:1 1611:1 1743:1 1919:1 2016:1 2109:1 2121:1 2396:1 2466:1 2528:1 2534:1 3104:1 3132:1 3140:1 3183:1 3287:1 3364:1 3379:1 3386:1 3399:1 3419:1 3510:1 3774:1 3843:1 4062:1 4107:1 4167:1 4291:1 4425:1 4508:1 4509:1 4517:1 4529:1 4688:1 4725:1 4965:1 4974:1 4976:1 4983:1 4990:1 5000:1 5002:1 5003:1 5009:1 5013:1 5014:1 5162:1 5166:1 5168:1 5182:1 5594:1 5677:1 5678:1 5679:1 5680:1 5681:1 
0.0007199560027991883 0:1 1:1 4:1 5:1 6:1 8:1 13:1 16:1 17:1 21:1 28:1 31:1 39:1 45:1 51:1 52:1 54:1 56:1 57:1 61:1 62:1 70:1 73:1 80:1 84:1 90:1 107:1 109:1 110:1 111:1 112:1 116:1 122:1 124:1 126:1 128:1 129:1 131:1 151:1 155:1 188:1 195:1 199:1 201:1 208:1 229:1 243:1 245:1 258:1 264:1 278:1 299:1 304:1 313:1 321:1 333:1 354:1 362:1 366:1 387:1 399:1 400:1 407:1 437:1 451:1 461:1 469:1 480:1 484:1 486:1 512:1 516:1 533:1 534:1 540:1 541:1 555:1 558:1 560:1 643:1 690:1 706:1 752:1 855:1 868:1 994:1 1015:1 1083:1 1111:1 1122:1 1157:1 1179:1 1298:1 1329:1 1419:1 1469:1 1527:1 1564:1 1591:1 1654:1 1781:1 1810:1 1957:1 2024:1 2172:1 2311:1 2595:1 2676:1 2774:1 2983:1 3010:1 3141:1 3250:1 3320:1 3701:1 3850:1 3997:1 4127:1 4278:1 4355:1 4439:1 4610:1 4792:1 5118:1 5225:1 5229:1 5231:1 5240:1 5248:1 5250:1 5254:1 5256:1 5257:1 5264:1 5268:1 5269:1 5288:1 5361:1 5362:1 5363:1 5491:1 5682:1 5683:1 5684:1 5685:1 5686:1 5687:1 5688:1 5689:1 5690:1 5691:1 5692:1 
0.001917975105003389 0:1 5:1 11:1 16:1 28:1 39:1 47:1 51:1 54:1 56:1 80:1 84:1 106:1 110:1 111:1 116:1 124:1 130:1 138:1 201:1 234:1 312:1 325:1 343:1 399:1 412:1 465:1 511:1 513:1 527:1 530:1 532:1 549:1 550:1 581:1 610:1 673:1 758:1 892:1 938:1 1048:1 1095:1 1096:1 1118:1 1127:1 1324:1 1392:1 1404:1 1453:1 1583:1 1724:1 1728:1 2074:1 2104:1 2252:1 2307:1 2596:1 2914:1 2962:1 3081:1 3457:1 3535:1 3742:1 3920:1 4788:1 4849:1 5074:1 5320:1 5366:1 5714:1 5715:1 5716:1 5717:1 5718:1 5719:1 5720:1 5721:1 5722:1 5723:1 5724:1 5725:1 5726:1 5727:1 5728:1 5729:1 5730:1 5731:1 5732:1 5733:1 5734:1 5735:1 5736:1 5737:1 
0.002162250805610042 0:1 4:1 5:1 8:1 11:1 19:1 28:1 39:1 42:1 47:1 51:1 52:1 54:1 56:1 57:1 71:1 80:1 81:1 91:1 109:1 110:1 111:1 112:1 116:1 124:1 126:1 129:1 135:1 151:1 164:1 199:1 214:1 235:1 255:1 274:1 297:1 307:1 325:1 335:1 392:1 400:1 437:1 484:1 486:1 509:1 510:1 513:1 516:1 530:1 532:1 550:1 557:1 561:1 562:1 595:1 640:1 824:1 901:1 938:1 969:1 1003:1 1049:1 1094:1 1103:1 1118:1 1227:1 1324:1 1329:1 1396:1 1489:1 1728:1 1736:1 1793:1 1799:1 2066:1 2104:1 2174:1 2252:1 2292:1 2467:1 2596:1 2965:1 3000:1 3001:1 3449:1 3816:1 3851:1 4243:1 4849:1 5337:1 5595:1 5700:1 5714:1 5717:1 5721:1 5726:1 5727:1 5730:1 5737:1 5749:1 5750:1 5751:1 5752:1 5753:1 5754:1 5755:1 5756:1 5757:1 5758:1 5759:1 5760:1 5761:1 5762:1 5763:1 5764:1 5765:1 5766:1 5767:1 5768:1 
0.01014945991360464 0:1 10:1 13:1 21:1 28:1 39:1 51:1 52:1 54:1 56:1 57:1 74:1 80:1 82:1 84:1 86:1 106:1 110:1 111:1 131:1 135:1 136:1 199:1 201:1 241:1 307:1 392:1 465:1 511:1 723:1 745:1 938:1 1029:1 1288:1 1376:1 1419:1 1461:1 1478:1 1594:1 1646:1 1647:1 1658:1 1664:1 1670:1 1678:1 1679:1 1681:1 1684:1 1862:1 2898:1 3223:1 3365:1 3396:1 3533:1 3732:1 4568:1 5791:1 5792:1 5793:1 5794:1 5795:1 5796:1 5797:1 5798:1 5799:1 5800:1 
0.0008478964491391315 0:1 1:1 5:1 8:1 11:1 13:1 16:1 19:1 21:1 39:1 44:1 47:1 51:1 52:1 54:1 56:1 57:1 67:1 73:1 74:1 80:1 82:1 86:1 90:1 106:1 109:1 110:1 111:1 116:1 122:1 124:1 126:1 134:1 135:1 136:1 139:1 144:1 147:1 151:1 157:1 188:1 189:1 199:1 201:1 204:1 212:1 233:1 234:1 241:1 253:1 255:1 256:1 278:1 280:1 307:1 312:1 313:1 317:1 319:1 321:1 326:1 343:1 366:1 376:1 386:1 392:1 400:1 409:1 410:1 425:1 431:1 465:1 466:1 472:1 486:1 490:1 499:1 506:1 509:1 511:1 513:1 514:1 516:1 530:1 533:1 545:1 547:1 551:1 556:1 557:1 558:1 560:1 562:1 569:1 610:1 615:1 618:1 640:1 650:1 652:1 681:1 684:1 695:1 750:1 766:1 872:1 903:1 940:1 992:1 1015:1 1035:1 1043:1 1081:1 1154:1 1255:1 1259:1 1273:1 1298:1 1319:1 1327:1 1342:1 1347:1 1396:1 1397:1 1414:1 1453:1 1454:1 1574:1 1591:1 1603:1 1632:1 1685:1 1693:1 1698:1 1759:1 1862:1 1930:1 1931:1 1932:1 2280:1 2292:1 2295:1 2445:1 2456:1 2509:1 2521:1 2576:1 2591:1 2650:1 2700:1 2752:1 2774:1 2786:1 2909:1 2946:1 3000:1 3131:1 3141:1 3167:1 3243:1 3306:1 3310:1 3313:1 3315:1 3341:1 3446:1 3482:1 3615:1 3684:1 3698:1 3792:1 3897:1 4107:1 4131:1 4310:1 4503:1 4504:1 4636:1 4720:1 4795:1 4796:1 4797:1 4799:1 4801:1 4802:1 4805:1 4806:1 4807:1 4809:1 4817:1 4819:1 4820:1 4821:1 4822:1 4824:1 4826:1 4831:1 4832:1 5009:1 5071:1 5339:1 5341:1 5355:1 5876:1 5877:1 5878:1 5879:1 5880:1 5881:1 5882:1 5883:1 5884:1 5885:1 5886:1 5887:1 5888:1 5889:1 5890:1 
0.0006552741238706727 0:1 5:1 8:1 10:1 11:1 16:1 39:1 51:1 52:1 54:1 56:1 57:1 67:1 69:1 80:1 82:1 84:1 87:1 106:1 110:1 111:1 112:1 113:1 116:1 124:1 126:1 129:1 131:1 135:1 136:1 151:1 182:1 183:1 193:1 232:1 234:1 256:1 266:1 280:1 300:1 307:1 312:1 313:1 321:1 335:1 375:1 382:1 400:1 407:1 456:1 477:1 511:1 514:1 516:1 530:1 556:1 557:1 562:1 569:1 573:1 719:1 730:1 872:1 938:1 940:1 947:1 1074:1 1095:1 1370:1 1404:1 1453:1 1469:1 1518:1 1598:1 1919:1 1923:1 2071:1 2109:1 2395:1 2472:1 2668:1 3077:1 3112:1 3399:1 3621:1 3803:1 3949:1 4062:1 4406:1 4541:1 4688:1 4965:1 4974:1 4976:1 5000:1 5002:1 5003:1 5013:1 5162:1 5166:1 5168:1 5182:1 5360:1 5891:1 5892:1 5893:1 5894:1 5895:1 5896:1 5897:1 5898:1 5899:1 5900:1 5901:1 5902:1 5903:1 5904:1 5905:1 5906:1 5907:1 5908:1 
0.007764653232975535 0:1 5:1 6:1 10:1 11:1 17:1 21:1 27:1 28:1 42:1 45:1 47:1 51:1 54:1 56:1 57:1 58:1 69:1 73:1 77:1 80:1 83:1 85:1 106:1 109:1 110:1 111:1 116:1 127:1 131:1 172:1 199:1 201:1 206:1 235:1 256:1 299:1 313:1 321:1 399:1 407:1 451:1 475:1 484:1 486:1 511:1 512:1 516:1 547:1 556:1 558:1 560:1 585:1 646:1 695:1 925:1 992:1 1081:1 1131:1 1259:1 1467:1 1518:1 1562:1 1591:1 1632:1 1659:1 1667:1 1680:1 1940:1 2000:1 2105:1 2276:1 2380:1 2405:1 2509:1 2670:1 2954:1 2956:1 3101:1 3223:1 3228:1 3380:1 3674:1 4095:1 4144:1 4146:1 4168:1 4189:1 4192:1 4193:1 4241:1 4242:1 5351:1 5555:1 6005:1 6006:1 6007:1 6008:1 6009:1 6010:1 6011:1 6012:1 
0.003658260960386208 0:1 4:1 5:1 10:1 11:1 13:1 16:1 17:1 21:1 28:1 39:1 50:1 51:1 52:1 54:1 56:1 57:1 67:1 69:1 80:1 82:1 84:1 106:1 110:1 111:1 116:1 131:1 199:1 224:1 249:1 250:1 265:1 300:1 313:1 339:1 372:1 376:1 392:1 400:1 415:1 465:1 484:1 486:1 487:1 502:1 516:1 530:1 547:1 633:1 745:1 872:1 1469:1 1517:1 1518:1 1574:1 1591:1 1653:1 1667:1 1680:1 1851:1 2026:1 2105:1 2109:1 2125:1 2380:1 2506:1 2579:1 2708:1 2748:1 2789:1 2794:1 2859:1 3000:1 3223:1 3383:1 3684:1 3735:1 3843:1 4143:1 4625:1 4988:1 4993:1 4994:1 5006:1 5008:1 6008:1 6013:1 6014:1 6015:1 6016:1 6017:1 6018:1 6019:1 6020:1 6021:1 6022:1 6023:1 6024:1 6025:1 6026:1 6027:1 6028:1 6029:1 6030:1 
0.002744584809283393 0:1 1:1 4:1 5:1 8:1 11:1 13:1 21:1 28:1 39:1 41:1 47:1 52:1 54:1 56:1 80:1 86:1 87:1 90:1 110:1 111:1 116:1 126:1 233:1 299:1 300:1 312:1 313:1 386:1 392:1 399:1 400:1 410:1 465:1 486:1 511:1 516:1 561:1 562:1 604:1 605:1 610:1 652:1 824:1 901:1 922:1 948:1 1015:1 1109:1 1122:1 1123:1 1217:1 1298:1 1377:1 1404:1 1415:1 1453:1 1518:1 1575:1 1588:1 1667:1 1680:1 1735:1 1767:1 1870:1 2009:1 2380:1 2419:1 2642:1 2650:1 2663:1 2666:1 2677:1 2691:1 2888:1 2914:1 3004:1 3223:1 3316:1 3381:1 3670:1 3953:1 4671:1 6008:1 6024:1 6126:1 6127:1 6128:1 6129:1 6130:1 6131:1 6132:1 
0.003867597248523853 0:1 1:1 5:1 8:1 17:1 21:1 39:1 51:1 54:1 56:1 57:1 80:1 84:1 86:1 90:1 109:1 110:1 111:1 116:1 117:1 129:1 132:1 135:1 151:1 155:1 253:1 366:1 392:1 399:1 407:1 465:1 466:1 513:1 516:1 534:1 552:1 557:1 559:1 565:1 700:1 760:1 922:1 1096:1 1111:1 1194:1 1212:1 1254:1 1574:1 1600:1 1612:1 1613:1 1689:1 1870:1 1981:1 2009:1 2312:1 2576:1 3542:1 3662:1 3815:1 4062:1 4231:1 4259:1 4309:1 5423:1 5426:1 5432:1 5433:1 5568:1 6181:1 6182:1 6183:1 6184:1 6185:1 6186:1 6187:1 6188:1 6189:1 6190:1 
0.0135456109826034 0:1 5:1 16:1 28:1 39:1 51:1 54:1 56:1 57:1 80:1 82:1 84:1 111:1 116:1 135:1 157:1 199:1 255:1 314:1 321:1 322:1 343:1 372:1 376:1 378:1 407:1 452:1 465:1 469:1 513:1 557:1 612:1 618:1 683:1 738:1 994:1 1049:1 1163:1 1395:1 1402:1 1414:1 1433:1 1530:1 1603:1 1698:1 1761:1 1967:1 2587:1 3396:1 3500:1 3710:1 3831:1 3915:1 3922:1 3953:1 4084:1 4625:1 4782:1 5023:1 5302:1 6191:1 6192:1 6193:1 6194:1 6195:1 6196:1 6197:1 6198:1 6199:1 6200:1 6201:1 6202:1 6203:1 
1 1:1 4:1 5:1 6:1 10:1 16:1 21:1 39:1 50:1 54:1 56:1 57:1 80:1 82:1 84:1 103:1 111:1 116:1 131:1 135:1 136:1 153:1 155:1 191:1 201:1 261:1 391:1 465:1 478:1 517:1 560:1 626:1 633:1 634:1 638:1 641:1 686:1 941:1 979:1 992:1 994:1 995:1 999:1 1048:1 1155:1 1172:1 1315:1 1453:1 1469:1 1527:1 1624:1 1625:1 1627:1 1647:1 1699:1 1724:1 1972:1 2111:1 2132:1 2364:1 2477:1 2506:1 2518:1 2844:1 2863:1 3621:1 3641:1 3742:1 3872:1 4088:1 4902:1 4957:1 5294:1 5700:1 6204:1 6205:1 6206:1 6207:1 6208:1 6209:1 6210:1 6211:1 6212:1 6213:1 6214:1 6215:1 6216:1 6217:1 6218:1 6219:1 6220:1 
0.02263050325159862 0:1 5:1 8:1 45:1 57:1 61:1 69:1 70:1 80:1 84:1 86:1 110:1 111:1 116:1 122:1 326:1 342:1 346:1 363:1 386:1 400:1 451:1 484:1 513:1 530:1 546:1 573:1 880:1 917:1 993:1 1095:1 1266:1 1273:1 1394:1 1398:1 1461:1 1476:1 1482:1 1782:1 2006:1 2650:1 2670:1 3097:1 3161:1 3774:1 4244:1 5113:1 5489:1 5830:1 5833:1 6221:1 6222:1 6223:1 6224:1 
0.0008171222017253768 0:1 3:1 4:1 5:1 8:1 10:1 11:1 16:1 21:1 22:1 28:1 37:1 39:1 45:1 47:1 50:1 51:1 52:1 54:1 56:1 57:1 74:1 76:1 80:1 82:1 83:1 84:1 87:1 97:1 110:1 111:1 113:1 116:1 118:1 124:1 126:1 129:1 131:1 135:1 146:1 151:1 154:1 155:1 189:1 191:1 199:1 201:1 206:1 240:1 255:1 278:1 280:1 284:1 297:1 304:1 307:1 321:1 335:1 342:1 343:1 353:1 356:1 368:1 376:1 386:1 392:1 399:1 400:1 407:1 443:1 452:1 453:1 465:1 466:1 480:1 484:1 486:1 499:1 509:1 511:1 512:1 513:1 516:1 519:1 525:1 530:1 547:1 549:1 555:1 556:1 562:1 569:1 573:1 576:1 595:1 623:1 624:1 625:1 635:1 650:1 652:1 694:1 704:1 719:1 732:1 769:1 773:1 788:1 837:1 855:1 901:1 917:1 938:1 941:1 974:1 1006:1 1007:1 1031:1 1035:1 1048:1 1089:1 1109:1 1116:1 1175:1 1177:1 1222:1 1250:1 1254:1 1286:1 1315:1 1330:1 1342:1 1346:1 1370:1 1374:1 1415:1 1424:1 1428:1 1436:1 1445:1 1454:1 1469:1 1510:1 1519:1 1527:1 1588:1 1610:1 1612:1 1621:1 1646:1 1678:1 1679:1 1687:1 1698:1 1765:1 1816:1 1839:1 1854:1 1871:1 1919:1 1952:1 2001:1 2026:1 2121:1 2125:1 2156:1 2161:1 2341:1 2364:1 2418:1 2445:1 2456:1 2466:1 2476:1 2576:1 2614:1 2668:1 2683:1 2704:1 2712:1 2863:1 2958:1 3062:1 3132:1 3295:1 3463:1 3579:1 3663:1 3882:1 4023:1 4172:1 4359:1 4596:1 4653:1 4738:1 4740:1 4817:1 5611:1 5806:1 5974:1 5978:1 6171:1 6179:1 6227:1 6229:1 6231:1 6232:1 6234:1 6237:1 6243:1 6244:1 6246:1 6247:1 6248:1 6250:1 6251:1 6252:1 6253:1 6254:1 6255:1 6261:1 6267:1 6270:1 6272:1 6273:1 6274:1 6276:1 6277:1 6278:1 6279:1 6285:1 6286:1 6287:1 6288:1 6289:1 6290:1 6291:1 6292:1 6293:1 6294:1 6295:1 6296:1 6297:1 6298:1 6299:1 6300:1 6301:1 6302:1 6303:1 6304:1 6305:1 6306:1 
0.001995579762479438 0:1 1:1 4:1 5:1 6:1 8:1 11:1 13:1 16:1 19:1 21:1 28:1 39:1 51:1 52:1 54:1 56:1 57:1 69:1 70:1 80:1 82:1 83:1 84:1 96:1 106:1 111:1 112:1 116:1 124:1 126:1 128:1 129:1 130:1 131:1 135:1 136:1 144:1 151:1 155:1 201:1 245:1 250:1 255:1 256:1 304:1 313:1 321:1 354:1 358:1 362:1 366:1 382:1 469:1 472:1 480:1 512:1 513:1 514:1 516:1 519:1 527:1 530:1 540:1 547:1 555:1 557:1 558:1 609:1 610:1 643:1 688:1 698:1 706:1 732:1 745:1 938:1 940:1 956:1 1083:1 1118:1 1236:1 1327:1 1329:1 1330:1 1346:1 1370:1 1414:1 1419:1 1453:1 1469:1 1497:1 1518:1 1527:1 1654:1 1667:1 1680:1 1781:1 1937:1 2105:1 2380:1 2404:1 2508:1 2512:1 2700:1 2808:1 2888:1 2940:1 2947:1 3022:1 3093:1 3181:1 3542:1 3742:1 3795:1 3850:1 3851:1 4127:1 4201:1 4278:1 4328:1 4641:1 4749:1 4812:1 4830:1 4866:1 5159:1 5248:1 5269:1 5361:1 5362:1 5363:1 5364:1 5365:1 5366:1 6008:1 6015:1 6091:1 6125:1 6344:1 6345:1 6346:1 6347:1 6348:1 
0.001952153191887766 0:1 1:1 5:1 6:1 8:1 11:1 13:1 16:1 39:1 48:1 50:1 51:1 52:1 54:1 56:1 69:1 70:1 72:1 73:1 80:1 82:1 83:1 84:1 85:1 86:1 91:1 94:1 97:1 106:1 109:1 110:1 111:1 113:1 116:1 126:1 127:1 128:1 135:1 136:1 159:1 174:1 191:1 199:1 201:1 214:1 245:1 255:1 256:1 275:1 279:1 285:1 299:1 300:1 313:1 315:1 321:1 343:1 365:1 366:1 368:1 375:1 382:1 386:1 396:1 400:1 412:1 415:1 419:1 420:1 425:1 461:1 464:1 469:1 480:1 484:1 486:1 509:1 511:1 512:1 516:1 518:1 533:1 543:1 550:1 557:1 560:1 565:1 569:1 618:1 634:1 640:1 652:1 684:1 691:1 706:1 775:1 815:1 862:1 868:1 937:1 938:1 946:1 1035:1 1049:1 1062:1 1063:1 1095:1 1109:1 1122:1 1125:1 1138:1 1176:1 1179:1 1183:1 1199:1 1255:1 1315:1 1330:1 1332:1 1346:1 1347:1 1415:1 1469:1 1518:1 1596:1 1667:1 1680:1 1690:1 1870:1 1919:1 2026:1 2105:1 2290:1 2313:1 2364:1 2380:1 2501:1 2550:1 2784:1 2974:1 3001:1 3041:1 3141:1 3295:1 3309:1 3332:1 3341:1 3484:1 3578:1 3684:1 3737:1 3763:1 4066:1 4480:1 4742:1 4827:1 5162:1 5166:1 5168:1 5182:1 5466:1 5665:1 5997:1 6008:1 6079:1 6183:1 6371:1 6402:1 6403:1 6404:1 6405:1 
0.02234848835992302 6:1 10:1 11:1 21:1 22:1 28:1 39:1 47:1 54:1 56:1 57:1 72:1 80:1 83:1 106:1 110:1 111:1 130:1 131:1 135:1 146:1 147:1 155:1 158:1 199:1 214:1 215:1 255:1 256:1 314:1 343:1 413:1 465:1 499:1 514:1 532:1 533:1 547:1 556:1 557:1 562:1 569:1 612:1 879:1 922:1 982:1 1043:1 1327:1 1329:1 2298:1 2378:1 2496:1 2500:1 2508:1 3092:1 3106:1 3698:1 3968:1 4080:1 4191:1 4193:1 4696:1 4703:1 4704:1 5045:1 6429:1 6430:1 6431:1 6432:1 6433:1 6434:1 
0.01044070611364447 0:1 5:1 8:1 13:1 39:1 40:1 54:1 55:1 73:1 80:1 111:1 116:1 136:1 204:1 234:1 307:1 353:1 376:1 392:1 413:1 552:1 565:1 650:1 747:1 776:1 936:1 979:1 1111:1 1122:1 1315:1 1588:1 1698:1 1917:1 1959:1 1984:1 2080:1 2259:1 2324:1 2408:1 2415:1 2555:1 2834:1 3291:1 3425:1 3638:1 3782:1 3895:1 4151:1 4241:1 4283:1 5485:1 6478:1 6479:1 6480:1 6481:1 6482:1 6483:1 6484:1 6485:1 6486:1 6487:1 6488:1 6489:1 6490:1 6491:1 6492:1 
0.01868595955335086 0:1 1:1 4:1 5:1 8:1 11:1 13:1 45:1 51:1 52:1 54:1 56:1 57:1 80:1 83:1 108:1 111:1 112:1 116:1 129:1 136:1 151:1 199:1 252:1 307:1 321:1 368:1 372:1 376:1 400:1 407:1 465:1 480:1 484:1 490:1 511:1 513:1 516:1 518:1 527:1 530:1 537:1 540:1 549:1 551:1 555:1 618:1 774:1 796:1 903:1 918:1 956:1 994:1 1144:1 1255:1 1342:1 1540:1 1698:1 2476:1 2570:1 2629:1 2774:1 2913:1 2988:1 3141:1 3240:1 3371:1 3955:1 5240:1 5254:1 6424:1 6546:1 6547:1 6548:1 6549:1 
2.651987644563408e-05 0:1 1:1 4:1 5:1 8:1 10:1 11:1 13:1 16:1 21:1 22:1 39:1 40:1 50:1 51:1 52:1 54:1 56:1 57:1 71:1 72:1 80:1 82:1 83:1 84:1 87:1 110:1 111:1 116:1 124:1 126:1 127:1 129:1 131:1 132:1 148:1 151:1 152:1 157:1 201:1 207:1 210:1 241:1 258:1 264:1 297:1 307:1 335:1 342:1 368:1 376:1 377:1 400:1 407:1 409:1 412:1 439:1 468:1 484:1 486:1 502:1 509:1 512:1 513:1 514:1 516:1 517:1 525:1 527:1 532:1 533:1 548:1 550:1 557:1 560:1 562:1 563:1 565:1 569:1 606:1 615:1 618:1 624:1 640:1 707:1 711:1 732:1 859:1 874:1 922:1 940:1 941:1 948:1 994:1 1043:1 1095:1 1118:1 1122:1 1183:1 1187:1 1221:1 1244:1 1254:1 1259:1 1272:1 1327:1 1330:1 1366:1 1396:1 1436:1 1453:1 1469:1 1479:1 1506:1 1517:1 1518:1 1527:1 1584:1 1588:1 1589:1 1612:1 1718:1 1784:1 1793:1 1799:1 1842:1 1862:1 1868:1 1871:1 1878:1 1885:1 1898:1 1918:1 1937:1 2014:1 2026:1 2057:1 2066:1 2069:1 2070:1 2092:1 2105:1 2116:1 2148:1 2298:1 2307:1 2418:1 2613:1 2698:1 2947:1 2958:1 2980:1 3008:1 3122:1 3263:1 3542:1 3575:1 3589:1 3682:1 3805:1 4004:1 4174:1 4246:1 4322:1 4369:1 4483:1 4489:1 4671:1 5209:1 5375:1 5495:1 5546:1 5790:1 5978:1 6138:1 6210:1 6252:1 6270:1 6276:1 6287:1 6470:1 6497:1 6577:1 6578:1 6579:1 6580:1 6581:1 6582:1 6583:1 6584:1 6585:1 6586:1 6587:1 6588:1 6589:1 6590:1 6591:1 6592:1 6593:1 6594:1 6595:1 6596:1 6597:1 6598:1 6599:1 6600:1 6601:1 6602:1 6603:1 6604:1 6605:1 6606:1 6607:1 6608:1 6609:1 6610:1 6611:1 6612:1 6613:1 6614:1 6615:1 6616:1 6617:1 6618:1 6619:1 6620:1 6621:1 6622:1 6623:1 
0.003017909709209855 0:1 1:1 4:1 5:1 8:1 10:1 30:1 39:1 45:1 51:1 54:1 56:1 57:1 73:1 76:1 80:1 82:1 83:1 87:1 106:1 107:1 108:1 109:1 110:1 111:1 116:1 126:1 129:1 131:1 135:1 136:1 147:1 155:1 168:1 199:1 209:1 255:1 256:1 280:1 297:1 300:1 343:1 399:1 415:1 465:1 473:1 509:1 511:1 514:1 516:1 532:1 534:1 549:1 557:1 562:1 565:1 569:1 625:1 652:1 752:1 823:1 917:1 947:1 1048:1 1110:1 1122:1 1329:1 1396:1 1469:1 1478:1 1494:1 1517:1 1518:1 1612:1 1630:1 1685:1 1799:1 2231:1 2414:1 2477:1 2681:1 2700:1 2707:1 2833:1 2895:1 3001:1 3181:1 3186:1 3459:1 3532:1 3684:1 3884:1 4444:1 4610:1 4959:1 5162:1 5166:1 5168:1 5182:1 5532:1 6436:1 6505:1 6687:1 6688:1 6689:1 6690:1 6691:1 6692:1 6693:1 6694:1 6695:1 6696:1 6697:1 6698:1 6699:1 6700:1 
0.009748458831558466 5:1 6:1 10:1 16:1 28:1 51:1 52:1 54:1 56:1 57:1 61:1 80:1 106:1 110:1 111:1 113:1 116:1 129:1 131:1 170:1 237:1 242:1 256:1 278:1 297:1 300:1 304:1 312:1 318:1 321:1 340:1 341:1 343:1 356:1 375:1 399:1 400:1 511:1 513:1 516:1 549:1 556:1 855:1 942:1 1118:1 1175:1 1494:1 1517:1 1589:1 1612:1 1630:1 1775:1 2671:1 2712:1 2738:1 2874:1 3380:1 3451:1 3473:1 3949:1 4392:1 4653:1 4923:1 5311:1 6436:1 6628:1 6701:1 6702:1 6703:1 6704:1 6705:1 6706:1 
0.0008723935296427058 0:1 1:1 4:1 5:1 8:1 10:1 11:1 13:1 16:1 17:1 21:1 30:1 47:1 50:1 51:1 52:1 54:1 56:1 57:1 61:1 62:1 63:1 70:1 73:1 80:1 83:1 87:1 106:1 107:1 109:1 110:1 111:1 112:1 113:1 115:1 116:1 131:1 135:1 136:1 138:1 144:1 147:1 153:1 157:1 227:1 229:1 249:1 256:1 312:1 315:1 321:1 347:1 386:1 392:1 396:1 398:1 399:1 400:1 410:1 425:1 437:1 466:1 499:1 513:1 516:1 525:1 532:1 543:1 549:1 555:1 556:1 560:1 562:1 565:1 588:1 634:1 652:1 693:1 734:1 752:1 823:1 824:1 855:1 879:1 922:1 948:1 1042:1 1053:1 1105:1 1154:1 1189:1 1225:1 1254:1 1298:1 1299:1 1315:1 1329:1 1394:1 1453:1 1457:1 1469:1 1504:1 1518:1 1531:1 1610:1 1612:1 1642:1 1671:1 1685:1 1781:1 1782:1 1793:1 1797:1 1862:1 1948:1 2024:1 2477:1 2602:1 2650:1 2653:1 2668:1 2707:1 2712:1 2802:1 2898:1 2947:1 2984:1 2985:1 3000:1 3133:1 3181:1 3206:1 3288:1 3320:1 3379:1 3388:1 3493:1 3573:1 3664:1 3911:1 3968:1 4055:1 4190:1 4284:1 4498:1 4511:1 4693:1 4859:1 5107:1 5162:1 5166:1 5168:1 5182:1 5688:1 5708:1 5917:1 5959:1 6701:1 6761:1 6762:1 6763:1 6764:1 6765:1 6766:1 6767:1 6768:1 6769:1 6770:1 6771:1 6772:1 6773:1 6774:1 6775:1 6776:1 6777:1 6778:1 6779:1 
0.02173725338726621 0:1 5:1 8:1 10:1 13:1 16:1 19:1 51:1 54:1 56:1 83:1 106:1 112:1 116:1 131:1 135:1 136:1 250:1 351:1 513:1 565:1 595:1 748:1 1043:1 1105:1 1225:1 1346:1 1396:1 1453:1 1469:1 1518:1 1574:1 1762:1 1880:1 2104:1 2105:1 2252:1 2477:1 2650:1 2792:1 3456:1 3493:1 4284:1 4693:1 4859:1 5162:1 5166:1 5168:1 5182:1 6219:1 6255:1 6634:1 6772:1 6775:1 6874:1 6886:1 6887:1 6888:1 6889:1 6890:1 6891:1 6892:1 6893:1 6894:1 6895:1 6896:1 
0.002587070054473277 0:1 1:1 3:1 8:1 10:1 11:1 14:1 21:1 24:1 42:1 51:1 52:1 54:1 56:1 73:1 80:1 82:1 84:1 85:1 87:1 88:1 90:1 106:1 109:1 110:1 111:1 113:1 116:1 124:1 126:1 129:1 131:1 135:1 136:1 151:1 188:1 193:1 202:1 214:1 232:1 245:1 255:1 274:1 307:1 313:1 316:1 321:1 339:1 343:1 366:1 376:1 399:1 400:1 412:1 433:1 437:1 465:1 484:1 509:1 513:1 516:1 523:1 532:1 547:1 550:1 556:1 557:1 558:1 560:1 587:1 687:1 745:1 819:1 855:1 899:1 936:1 938:1 941:1 948:1 966:1 994:1 1019:1 1043:1 1109:1 1114:1 1175:1 1219:1 1244:1 1245:1 1255:1 1284:1 1336:1 1469:1 1518:1 1527:1 1574:1 1584:1 1596:1 1608:1 1671:1 1698:1 1896:1 2102:1 2132:1 2466:1 2531:1 2861:1 2909:1 2925:1 2957:1 2996:1 3281:1 3282:1 3297:1 3310:1 3314:1 3456:1 3621:1 3872:1 4346:1 4347:1 4348:1 4361:1 4881:1 5141:1 5745:1 6009:1 6201:1 6456:1 6743:1 6977:1 6978:1 6979:1 6980:1 6981:1 6982:1 6983:1 6984:1 6985:1 6986:1 6987:1 6988:1 6989:1 6990:1 
0.009736289563509712 0:1 3:1 5:1 8:1 11:1 51:1 54:1 56:1 75:1 80:1 110:1 111:1 116:1 124:1 135:1 136:1 144:1 147:1 205:1 206:1 278:1 296:1 297:1 300:1 307:1 312:1 392:1 399:1 400:1 484:1 511:1 514:1 516:1 534:1 549:1 558:1 596:1 824:1 938:1 1027:1 1244:1 1469:1 1494:1 1517:1 1518:1 1612:1 1630:1 1859:1 2105:1 2317:1 2625:1 2884:1 2923:1 3025:1 3131:1 3233:1 3341:1 3363:1 3641:1 3938:1 4084:1 4444:1 4751:1 4875:1 5162:1 5166:1 5168:1 5182:1 5355:1 5535:1 5545:1 5694:1 6436:1 6687:1 6691:1 6699:1 6700:1 6837:1 6838:1 6839:1 7115:1 7116:1 7117:1 7118:1 
0.02818401605097441 0:1 5:1 10:1 13:1 17:1 21:1 51:1 54:1 56:1 67:1 71:1 80:1 87:1 106:1 110:1 111:1 116:1 119:1 124:1 131:1 135:1 136:1 151:1 256:1 307:1 343:1 366:1 400:1 410:1 532:1 547:1 548:1 552:1 1227:1 1256:1 1258:1 1516:1 1518:1 1781:1 2105:1 2769:1 2914:1 3197:1 3596:1 3716:1 3895:1 4107:1 4332:1 4430:1 4467:1 4658:1 5453:1 5597:1 6450:1 6452:1 6454:1 6459:1 6474:1 6500:1 6518:1 7119:1 7120:1 7121:1 
0.0002432614560494771 0:1 5:1 8:1 10:1 11:1 16:1 19:1 30:1 33:1 39:1 51:1 52:1 54:1 56:1 67:1 69:1 73:1 80:1 82:1 83:1 86:1 87:1 109:1 110:1 111:1 112:1 116:1 124:1 126:1 129:1 131:1 135:1 136:1 155:1 232:1 245:1 289:1 297:1 313:1 321:1 343:1 366:1 376:1 382:1 399:1 465:1 469:1 486:1 502:1 509:1 512:1 513:1 514:1 516:1 530:1 532:1 549:1 550:1 565:1 618:1 792:1 823:1 874:1 917:1 938:1 968:1 1027:1 1108:1 1118:1 1122:1 1199:1 1258:1 1284:1 1327:1 1362:1 1396:1 1417:1 1469:1 1494:1 1517:1 1518:1 1584:1 1588:1 1612:1 1630:1 1685:1 1793:1 2231:1 2290:1 2477:1 2509:1 2668:1 2672:1 2707:1 2895:1 2946:1 2983:1 3165:1 3324:1 3380:1 3486:1 3493:1 3513:1 3564:1 3742:1 3824:1 4356:1 4541:1 4610:1 5162:1 5166:1 5168:1 5180:1 5182:1 5211:1 5259:1 5279:1 5532:1 6436:1 6694:1 6781:1 7122:1 7123:1 7124:1 7125:1 7126:1 7127:1 7128:1 7129:1 7130:1 
0.04928730663930216 0:1 5:1 11:1 45:1 54:1 56:1 57:1 80:1 111:1 115:1 116:1 144:1 189:1 335:1 547:1 627:1 650:1 917:1 1109:1 1162:1 1315:1 1341:1 1436:1 2023:1 2057:1 2628:1 2698:1 2958:1 3365:1 3390:1 3682:1 4449:1 4808:1 4977:1 5209:1 7167:1 7168:1 7169:1 7170:1 7171:1 7172:1 
0.004549757395096358 0:1 5:1 8:1 14:1 16:1 39:1 54:1 57:1 67:1 69:1 80:1 87:1 106:1 110:1 111:1 112:1 116:1 129:1 131:1 136:1 138:1 151:1 193:1 199:1 229:1 232:1 235:1 249:1 256:1 266:1 300:1 304:1 307:1 312:1 321:1 335:1 354:1 375:1 400:1 484:1 499:1 511:1 516:1 547:1 552:1 560:1 562:1 569:1 824:1 919:1 935:1 938:1 1074:1 1100:1 1136:1 1155:1 1177:1 1189:1 1294:1 1330:1 1370:1 1417:1 1469:1 1502:1 1598:1 1919:1 2023:1 2109:1 2156:1 2161:1 2205:1 2312:1 2779:1 3287:1 3399:1 3419:1 4291:1 4688:1 4965:1 4974:1 4976:1 4983:1 4990:1 5000:1 5002:1 5003:1 5005:1 5009:1 5013:1 5014:1 5160:1 5162:1 5166:1 5168:1 5182:1 5367:1 5368:1 5370:1 5372:1 5375:1 5386:1 7247:1 7248:1 
0.04127421967495436 0:1 4:1 5:1 21:1 45:1 48:1 54:1 56:1 72:1 80:1 82:1 111:1 116:1 124:1 278:1 326:1 358:1 379:1 407:1 412:1 443:1 511:1 516:1 555:1 562:1 573:1 574:1 1042:1 1160:1 1254:1 1306:1 1322:1 1612:1 1630:1 1745:1 1799:1 2044:1 2109:1 2549:1 2726:1 2958:1 3989:1 4049:1 4427:1 4866:1 7662:1 7663:1 7664:1 7665:1 7666:1 
0.03087914105693704 5:1 6:1 32:1 62:1 80:1 87:1 101:1 110:1 111:1 112:1 116:1 131:1 135:1 188:1 199:1 255:1 289:1 313:1 321:1 453:1 486:1 565:1 576:1 633:1 745:1 768:1 897:1 938:1 1222:1 1330:1 1464:1 1517:1 1761:1 1859:1 1967:1 3443:1 3953:1 3958:1 3959:1 3961:1 3962:1 3963:1 3965:1 4419:1 4749:1 4770:1 4988:1 4993:1 4994:1 5006:1 5008:1 7437:1 7729:1 
5.543396930429246e-05 0:1 4:1 5:1 10:1 11:1 16:1 22:1 28:1 39:1 42:1 51:1 52:1 54:1 56:1 57:1 71:1 82:1 83:1 89:1 106:1 107:1 110:1 111:1 112:1 113:1 116:1 126:1 129:1 131:1 133:1 144:1 146:1 151:1 153:1 188:1 189:1 195:1 232:1 237:1 255:1 256:1 258:1 264:1 296:1 307:1 318:1 319:1 321:1 340:1 341:1 354:1 357:1 376:1 386:1 392:1 399:1 400:1 422:1 511:1 513:1 516:1 519:1 530:1 533:1 547:1 549:1 553:1 556:1 560:1 562:1 563:1 652:1 723:1 755:1 874:1 901:1 937:1 938:1 940:1 948:1 994:1 1037:1 1081:1 1115:1 1148:1 1194:1 1255:1 1324:1 1329:1 1342:1 1347:1 1370:1 1403:1 1411:1 1415:1 1436:1 1469:1 1492:1 1502:1 1513:1 1594:1 1598:1 1613:1 1632:1 1671:1 1680:1 1719:1 1726:1 1735:1 1737:1 1745:1 1894:1 2009:1 2087:1 2312:1 2398:1 2423:1 2556:1 2564:1 2653:1 2685:1 2707:1 2791:1 2863:1 2966:1 2980:1 3010:1 3081:1 3295:1 3316:1 3383:1 3599:1 3702:1 3725:1 3830:1 3851:1 4220:1 4309:1 4427:1 4539:1 4629:1 4720:1 4831:1 4884:1 5491:1 5523:1 5661:1 5688:1 5709:1 5986:1 6062:1 6119:1 6325:1 6350:1 6523:1 6628:1 7172:1 7189:1 7217:1 7667:1 7730:1 7731:1 7732:1 7733:1 7734:1 7735:1 7736:1 7737:1 7738:1 7739:1 7740:1 7741:1 7742:1 7743:1 7744:1 7745:1 7746:1 7747:1 7748:1 7749:1 7750:1 7751:1 7752:1 7753:1 
0.001492926778367382 0:1 4:1 5:1 8:1 10:1 13:1 16:1 21:1 28:1 31:1 39:1 44:1 45:1 50:1 51:1 52:1 54:1 56:1 57:1 58:1 67:1 69:1 71:1 76:1 80:1 82:1 83:1 84:1 85:1 87:1 106:1 110:1 111:1 112:1 116:1 122:1 126:1 131:1 135:1 136:1 140:1 151:1 176:1 188:1 199:1 201:1 207:1 208:1 255:1 256:1 263:1 289:1 297:1 307:1 312:1 321:1 348:1 366:1 369:1 399:1 412:1 425:1 465:1 469:1 484:1 488:1 502:1 509:1 511:1 516:1 532:1 550:1 558:1 560:1 562:1 565:1 566:1 569:1 595:1 610:1 618:1 634:1 646:1 723:1 752:1 765:1 770:1 777:1 838:1 862:1 901:1 919:1 948:1 1007:1 1029:1 1244:1 1313:1 1329:1 1374:1 1399:1 1460:1 1467:1 1504:1 1588:1 1591:1 1594:1 1730:1 1759:1 1981:1 2057:1 2259:1 2500:1 2521:1 2713:1 2876:1 2877:1 2878:1 2903:1 2941:1 2996:1 3035:1 3061:1 3177:1 3225:1 3273:1 3295:1 3316:1 3341:1 3486:1 3596:1 3621:1 3801:1 3825:1 3861:1 3872:1 4169:1 4194:1 4339:1 4395:1 4400:1 4493:1 4610:1 4639:1 4781:1 4934:1 4976:1 5072:1 5091:1 5130:1 5199:1 5221:1 6132:1 6370:1 6776:1 6854:1 7230:1 7775:1 7776:1 7777:1 7778:1 7779:1 7780:1 7781:1 7782:1 7783:1 7784:1 7785:1 7786:1 7787:1 7788:1 7789:1 7790:1 7791:1 7792:1 7793:1 7794:1 
0.0007722170273373871 0:1 4:1 6:1 8:1 9:1 10:1 11:1 13:1 16:1 39:1 50:1 51:1 52:1 54:1 56:1 57:1 62:1 70:1 71:1 80:1 82:1 84:1 85:1 86:1 87:1 91:1 106:1 110:1 111:1 116:1 124:1 126:1 127:1 131:1 135:1 139:1 154:1 155:1 168:1 199:1 201:1 227:1 230:1 232:1 255:1 265:1 275:1 289:1 307:1 321:1 335:1 366:1 376:1 378:1 400:1 407:1 410:1 425:1 465:1 484:1 486:1 493:1 502:1 513:1 514:1 516:1 518:1 530:1 547:1 550:1 560:1 562:1 609:1 615:1 618:1 626:1 640:1 684:1 690:1 788:1 810:1 823:1 854:1 929:1 939:1 947:1 979:1 1015:1 1027:1 1049:1 1079:1 1089:1 1151:1 1189:1 1209:1 1259:1 1327:1 1414:1 1424:1 1467:1 1469:1 1518:1 1574:1 1583:1 1588:1 1656:1 1659:1 1671:1 1766:1 1932:1 2026:1 2056:1 2186:1 2505:1 2613:1 2656:1 2667:1 2670:1 2675:1 2692:1 2719:1 2720:1 2874:1 2876:1 2928:1 2940:1 2961:1 3061:1 3206:1 3380:1 3412:1 3464:1 3493:1 3513:1 3596:1 3621:1 3742:1 3756:1 3795:1 3831:1 3834:1 3867:1 3880:1 4066:1 4339:1 4363:1 4504:1 4524:1 4626:1 4693:1 5023:1 5907:1 6138:1 6467:1 6533:1 6881:1 7112:1 7179:1 7569:1 7865:1 7866:1 7867:1 7868:1 7869:1 7870:1 7871:1 7872:1 7873:1 7874:1 7875:1 7876:1 7877:1 7878:1 7879:1 7880:1 7881:1 7882:1 7883:1 7884:1 7885:1 
0.01923961464332258 0:1 1:1 8:1 16:1 28:1 36:1 47:1 51:1 80:1 82:1 83:1 84:1 111:1 116:1 135:1 174:1 249:1 312:1 313:1 376:1 391:1 399:1 400:1 525:1 550:1 557:1 1111:1 1315:1 1329:1 1343:1 1370:1 1417:1 1436:1 1445:1 1457:1 1596:1 1685:1 2252:1 3131:1 3690:1 3742:1 3967:1 4314:1 4315:1 4316:1 4320:1 4322:1 4323:1 4324:1 4325:1 4326:1 4329:1 4332:1 5943:1 5945:1 5958:1 5959:1 7944:1 7945:1 7946:1 
0.005430197920219592 1:1 4:1 6:1 8:1 11:1 28:1 39:1 51:1 54:1 56:1 57:1 80:1 111:1 116:1 124:1 300:1 312:1 313:1 399:1 400:1 410:1 486:1 487:1 511:1 516:1 561:1 618:1 901:1 1027:1 1122:1 1123:1 1377:1 1415:1 1453:1 1518:1 1530:1 1667:1 1680:1 1859:1 2105:1 2642:1 2663:1 2666:1 2677:1 2691:1 2712:1 2914:1 3223:1 3316:1 3381:1 3699:1 4952:1 5781:1 6008:1 6024:1 6127:1 6130:1 6131:1 7965:1 7966:1 7967:1 7968:1 7969:1 7970:1 
0.001786731754706012 0:1 4:1 5:1 8:1 9:1 10:1 11:1 16:1 39:1 42:1 50:1 51:1 52:1 54:1 56:1 57:1 67:1 70:1 71:1 80:1 82:1 84:1 85:1 87:1 91:1 106:1 109:1 110:1 111:1 114:1 116:1 124:1 129:1 131:1 135:1 136:1 139:1 146:1 168:1 188:1 190:1 227:1 230:1 232:1 235:1 241:1 255:1 256:1 321:1 335:1 356:1 376:1 400:1 407:1 412:1 425:1 437:1 465:1 484:1 486:1 487:1 493:1 502:1 513:1 514:1 516:1 518:1 530:1 547:1 549:1 556:1 560:1 609:1 615:1 640:1 663:1 673:1 730:1 748:1 769:1 810:1 823:1 829:1 864:1 896:1 917:1 929:1 979:1 1027:1 1189:1 1209:1 1218:1 1244:1 1295:1 1298:1 1336:1 1404:1 1414:1 1415:1 1469:1 1504:1 1518:1 1600:1 1656:1 1681:1 1685:1 1698:1 1717:1 1762:1 1900:1 1919:1 2026:1 2072:1 2136:1 2153:1 2396:1 2423:1 2505:1 2509:1 2565:1 2667:1 2670:1 2675:1 2715:1 2874:1 2876:1 2896:1 2903:1 2920:1 2928:1 3133:1 3167:1 3168:1 3380:1 3412:1 3493:1 3513:1 3742:1 3756:1 3795:1 3831:1 3867:1 3950:1 4233:1 4295:1 4336:1 4337:1 4338:1 4339:1 4344:1 4345:1 4346:1 4347:1 4348:1 4363:1 4524:1 4626:1 5023:1 5142:1 5143:1 5147:1 5153:1 5156:1 5157:1 5347:1 5558:1 5575:1 6425:1 6467:1 6492:1 6881:1 7003:1 7112:1 7179:1 7818:1 7865:1 7869:1 7871:1 7874:1 7875:1 7876:1 7878:1 7879:1 7881:1 7883:1 7885:1 7896:1 7971:1 7972:1 7973:1 7974:1 7975:1 7976:1 7977:1 7978:1 7979:1 
0.007529680996714827 0:1 5:1 8:1 11:1 13:1 16:1 32:1 51:1 52:1 54:1 56:1 57:1 80:1 82:1 86:1 90:1 104:1 110:1 111:1 116:1 120:1 124:1 126:1 129:1 131:1 135:1 136:1 151:1 275:1 307:1 321:1 343:1 356:1 392:1 399:1 400:1 465:1 481:1 484:1 499:1 511:1 513:1 516:1 545:1 547:1 549:1 557:1 561:1 565:1 615:1 788:1 938:1 973:1 979:1 1049:1 1109:1 1154:1 1194:1 1315:1 1372:1 1414:1 1417:1 1453:1 1469:1 1527:1 1577:1 1600:1 1659:1 1660:1 1685:1 1864:1 1960:1 2105:1 2129:1 2213:1 2527:1 2653:1 2868:1 2877:1 2878:1 2881:1 2883:1 2884:1 2889:1 2894:1 2898:1 2903:1 2904:1 2907:1 2908:1 2909:1 2915:1 2923:1 2932:1 2933:1 2934:1 2939:1 3482:1 3851:1 3867:1 4124:1 4363:1 4506:1 4809:1 5023:1 5220:1 5907:1 6467:1 6775:1 7570:1 7866:1 7879:1 7883:1 7976:1 7980:1 
0.004214827526904491 0:1 1:1 5:1 8:1 10:1 11:1 16:1 21:1 45:1 51:1 52:1 54:1 56:1 57:1 59:1 67:1 80:1 82:1 83:1 106:1 110:1 111:1 115:1 116:1 124:1 126:1 128:1 131:1 136:1 151:1 155:1 199:1 201:1 227:1 255:1 278:1 307:1 312:1 317:1 321:1 354:1 368:1 387:1 399:1 400:1 407:1 465:1 502:1 503:1 511:1 540:1 550:1 555:1 606:1 618:1 644:1 652:1 907:1 940:1 948:1 1042:1 1095:1 1199:1 1255:1 1318:1 1327:1 1336:1 1343:1 1414:1 1469:1 1495:1 1506:1 1584:1 1600:1 1659:1 1685:1 2026:1 2105:1 2512:1 2532:1 2584:1 2731:1 2876:1 2909:1 2971:1 2996:1 3334:1 3446:1 3493:1 3535:1 3548:1 3596:1 3598:1 3873:1 3899:1 4813:1 5090:1 5113:1 5130:1 5355:1 6396:1 8002:1 8003:1 
0.03397281274518334 0:1 1:1 6:1 10:1 11:1 28:1 39:1 51:1 54:1 56:1 57:1 80:1 106:1 111:1 116:1 124:1 131:1 155:1 300:1 399:1 400:1 413:1 487:1 516:1 618:1 935:1 1027:1 1096:1 1122:1 1415:1 1453:1 1518:1 1698:1 1859:1 2105:1 2712:1 2874:1 3552:1 3699:1 4952:1 5781:1 6009:1 6334:1 6903:1 7965:1 7966:1 7967:1 7969:1 7970:1 8004:1 8005:1 8006:1 8007:1 8008:1 
0.002413714264238663 0:1 1:1 5:1 6:1 8:1 33:1 39:1 45:1 51:1 52:1 54:1 56:1 57:1 67:1 69:1 71:1 80:1 82:1 83:1 85:1 106:1 109:1 110:1 111:1 112:1 116:1 122:1 124:1 135:1 136:1 144:1 188:1 190:1 199:1 255:1 256:1 307:1 312:1 321:1 366:1 392:1 399:1 400:1 407:1 412:1 465:1 466:1 471:1 502:1 509:1 511:1 512:1 513:1 516:1 519:1 530:1 549:1 557:1 560:1 562:1 595:1 618:1 625:1 630:1 634:1 640:1 681:1 732:1 745:1 768:1 842:1 855:1 857:1 860:1 864:1 865:1 872:1 992:1 994:1 1018:1 1081:1 1095:1 1130:1 1173:1 1255:1 1325:1 1327:1 1370:1 1376:1 1377:1 1455:1 1474:1 1475:1 1482:1 1591:1 1712:1 1724:1 1852:1 1873:1 1894:1 2024:1 2109:1 2290:1 2357:1 2417:1 2509:1 2532:1 2576:1 2588:1 2598:1 2632:1 2874:1 2876:1 3000:1 3104:1 3133:1 3149:1 3216:1 3379:1 3420:1 3425:1 3654:1 3707:1 3721:1 4207:1 4455:1 4740:1 4819:1 4945:1 5323:1 5451:1 5802:1 5806:1 5807:1 5810:1 5815:1 5816:1 5817:1 5819:1 5821:1 5822:1 5826:1 5828:1 5829:1 5830:1 5832:1 5833:1 5835:1 5841:1 5844:1 5846:1 5847:1 5848:1 5853:1 5859:1 5861:1 5862:1 5868:1 5869:1 5871:1 5875:1 6026:1 6226:1 7530:1 7760:1 8042:1 8043:1 8044:1 8045:1 8046:1 8047:1 8048:1 8049:1 8050:1 8051:1 
0.006435743090124174 0:1 1:1 5:1 10:1 16:1 17:1 19:1 21:1 28:1 39:1 51:1 52:1 54:1 56:1 57:1 61:1 80:1 82:1 84:1 106:1 107:1 110:1 111:1 113:1 116:1 129:1 131:1 135:1 155:1 189:1 205:1 245:1 256:1 263:1 299:1 300:1 307:1 321:1 343:1 366:1 400:1 407:1 469:1 484:1 486:1 499:1 513:1 514:1 516:1 530:1 533:1 540:1 549:1 560:1 562:1 565:1 625:1 650:1 684:1 690:1 903:1 917:1 941:1 1100:1 1244:1 1295:1 1329:1 1343:1 1392:1 1411:1 1436:1 1489:1 1495:1 1502:1 1503:1 1518:1 1544:1 1588:1 1589:1 1600:1 1671:1 1718:1 1868:1 1877:1 2019:1 2026:1 2252:1 2477:1 2532:1 2579:1 2712:1 2914:1 3139:1 3156:1 3177:1 3224:1 3357:1 3360:1 3447:1 3575:1 3923:1 6134:1 6156:1 6188:1 6592:1 8029:1 8080:1 8081:1 8082:1 8083:1 8084:1 8085:1 8086:1 8087:1 8088:1 8089:1 
0.005724647226917523 0:1 5:1 8:1 11:1 13:1 16:1 19:1 32:1 39:1 50:1 51:1 52:1 56:1 57:1 62:1 69:1 72:1 80:1 83:1 84:1 86:1 87:1 106:1 111:1 112:1 113:1 126:1 135:1 146:1 151:1 188:1 199:1 201:1 232:1 234:1 255:1 256:1 289:1 296:1 307:1 313:1 372:1 381:1 400:1 466:1 486:1 513:1 514:1 519:1 550:1 552:1 561:1 565:1 595:1 640:1 730:1 938:1 1027:1 1095:1 1177:1 1330:1 1346:1 1602:1 1660:1 1706:1 1870:1 2116:1 2404:1 2474:1 2653:1 2672:1 2786:1 2877:1 2901:1 2909:1 3127:1 3228:1 3461:1 3764:1 3842:1 3850:1 4749:1 5117:1 5167:1 5277:1 5341:1 5352:1 7509:1 8090:1 8091:1 8092:1 8093:1 
9.294964594866536e-05 0:1 1:1 5:1 8:1 10:1 11:1 16:1 21:1 45:1 51:1 52:1 54:1 56:1 57:1 59:1 67:1 80:1 82:1 83:1 106:1 110:1 111:1 115:1 116:1 124:1 126:1 128:1 129:1 131:1 135:1 136:1 151:1 152:1 155:1 199:1 201:1 227:1 255:1 278:1 280:1 307:1 312:1 317:1 321:1 343:1 354:1 368:1 387:1 399:1 400:1 407:1 465:1 490:1 502:1 503:1 511:1 516:1 540:1 550:1 555:1 606:1 618:1 625:1 644:1 652:1 653:1 907:1 922:1 940:1 948:1 1031:1 1042:1 1095:1 1099:1 1176:1 1199:1 1236:1 1255:1 1318:1 1327:1 1336:1 1342:1 1343:1 1414:1 1428:1 1469:1 1495:1 1506:1 1544:1 1583:1 1584:1 1600:1 1643:1 1659:1 1685:1 1698:1 2026:1 2085:1 2105:1 2268:1 2404:1 2476:1 2512:1 2532:1 2570:1 2584:1 2586:1 2715:1 2731:1 2876:1 2896:1 2909:1 2920:1 2940:1 2971:1 2996:1 3035:1 3243:1 3334:1 3446:1 3493:1 3535:1 3548:1 3596:1 3598:1 3873:1 3899:1 4749:1 4813:1 5090:1 5113:1 5130:1 5355:1 5558:1 5575:1 6059:1 6396:1 6546:1 6547:1 7007:1 7912:1 8002:1 8003:1 8094:1 8095:1 
0.0006180945312618182 0:1 4:1 5:1 8:1 10:1 11:1 13:1 16:1 21:1 28:1 30:1 39:1 51:1 52:1 54:1 56:1 58:1 80:1 82:1 84:1 86:1 87:1 110:1 111:1 112:1 116:1 126:1 129:1 131:1 135:1 136:1 189:1 196:1 199:1 201:1 255:1 307:1 321:1 343:1 366:1 375:1 400:1 407:1 511:1 513:1 533:1 540:1 547:1 552:1 562:1 643:1 700:1 764:1 936:1 1095:1 1199:1 1258:1 1283:1 1284:1 1506:1 1518:1 1571:1 1584:1 1600:1 1762:1 1983:1 2057:1 2105:1 2505:1 2530:1 2553:1 2752:1 2808:1 2877:1 2942:1 3264:1 3313:1 3318:1 3324:1 3493:1 3535:1 3701:1 3795:1 4127:1 4168:1 4278:1 4316:1 4324:1 4326:1 4329:1 4602:1 4883:1 5061:1 5079:1 5241:1 5248:1 5401:1 5640:1 5687:1 7416:1 7433:1 7773:1 7937:1 7938:1 7939:1 7940:1 7941:1 7942:1 8096:1 8097:1 
0.001089422617042598 0:1 4:1 5:1 6:1 8:1 11:1 16:1 21:1 22:1 28:1 39:1 42:1 45:1 50:1 51:1 52:1 54:1 55:1 56:1 57:1 61:1 67:1 71:1 79:1 80:1 82:1 84:1 86:1 106:1 108:1 110:1 111:1 116:1 124:1 135:1 136:1 155:1 201:1 232:1 249:1 250:1 256:1 279:1 305:1 321:1 343:1 356:1 366:1 382:1 392:1 399:1 400:1 465:1 484:1 513:1 547:1 555:1 573:1 596:1 604:1 618:1 653:1 769:1 855:1 903:1 917:1 941:1 1005:1 1029:1 1187:1 1244:1 1283:1 1284:1 1315:1 1336:1 1470:1 1502:1 1506:1 1544:1 1588:1 1589:1 1718:1 1797:1 1983:1 2044:1 2057:1 2105:1 2258:1 2617:1 2707:1 2849:1 2950:1 3149:1 3463:1 3572:1 3575:1 3676:1 3871:1 4000:1 4457:1 4511:1 4539:1 4654:1 4866:1 4980:1 5334:1 5640:1 6001:1 6392:1 7225:1 7578:1 8097:1 8098:1 8099:1 8100:1 8101:1 8102:1 8103:1 8104:1 8105:1 8106:1 8107:1 8108:1 8109:1 
0.002276382182394083 0:1 1:1 4:1 5:1 8:1 10:1 13:1 16:1 21:1 32:1 38:1 39:1 47:1 51:1 54:1 57:1 73:1 80:1 87:1 91:1 110:1 111:1 113:1 116:1 129:1 135:1 146:1 151:1 157:1 305:1 313:1 321:1 324:1 332:1 335:1 343:1 366:1 407:1 410:1 412:1 425:1 465:1 472:1 474:1 514:1 516:1 518:1 527:1 547:1 555:1 562:1 609:1 640:1 646:1 650:1 776:1 799:1 874:1 948:1 1095:1 1227:1 1239:1 1284:1 1329:1 1342:1 1414:1 1544:1 1671:1 2026:1 2057:1 2377:1 2468:1 2564:1 2684:1 2720:1 2942:1 3120:1 3133:1 3208:1 3243:1 3365:1 3445:1 3701:1 4062:1 4083:1 4089:1 4131:1 4168:1 4223:1 4247:1 4300:1 4496:1 4504:1 4580:1 4620:1 4886:1 4980:1 5151:1 5248:1 5351:1 5594:1 5640:1 5961:1 6365:1 6843:1 7281:1 7941:1 8110:1 8111:1 8112:1 8113:1 8114:1 8115:1 8116:1 8117:1 8118:1 8119:1 8120:1 8121:1 8122:1 8123:1 8124:1 8125:1 8126:1 8127:1 8128:1 8129:1 8130:1 8131:1 8132:1 
0.0005947334545178716 1:1 5:1 8:1 10:1 11:1 22:1 45:1 47:1 51:1 54:1 56:1 57:1 73:1 80:1 82:1 86:1 106:1 110:1 111:1 115:1 124:1 126:1 131:1 136:1 151:1 189:1 227:1 278:1 289:1 317:1 392:1 400:1 412:1 465:1 484:1 540:1 555:1 595:1 615:1 618:1 948:1 1111:1 1259:1 1318:1 1327:1 1336:1 1428:1 1469:1 1495:1 1518:1 1584:1 1596:1 1693:1 1768:1 1870:1 2105:1 2512:1 2527:1 2584:1 2715:1 2731:1 2876:1 2896:1 2909:1 2920:1 3000:1 3007:1 3029:1 3156:1 3446:1 3493:1 3495:1 3591:1 3593:1 3598:1 3899:1 4726:1 4813:1 5558:1 5569:1 5575:1 5852:1 5963:1 5964:1 5968:1 5971:1 5977:1 5978:1 5979:1 5983:1 5985:1 5987:1 5988:1 5990:1 5993:1 5997:1 5999:1 6000:1 8139:1 8140:1 8141:1 
0.005172916682404152 0:1 5:1 10:1 22:1 28:1 39:1 45:1 51:1 54:1 57:1 76:1 80:1 83:1 85:1 110:1 111:1 116:1 122:1 124:1 129:1 131:1 155:1 189:1 232:1 321:1 400:1 481:1 484:1 513:1 530:1 549:1 556:1 562:1 595:1 618:1 938:1 941:1 1096:1 1255:1 1377:1 1517:1 1646:1 1654:1 1678:1 1679:1 1930:1 1931:1 2129:1 2309:1 2456:1 2502:1 2928:1 2980:1 3295:1 3316:1 3379:1 3463:1 3660:1 3674:1 3882:1 4511:1 4543:1 5876:1 6672:1 6852:1 7699:1 7700:1 7743:1 8142:1 8143:1 8144:1 
0.05277512404428603 5:1 8:1 51:1 54:1 80:1 82:1 111:1 116:1 124:1 129:1 275:1 317:1 366:1 511:1 546:1 618:1 716:1 760:1 1295:1 1392:1 1587:1 1742:1 1938:1 2505:1 3025:1 3062:1 3064:1 4766:1 4849:1 8145:1 8146:1 8147:1 
0.01154821733940645 5:1 6:1 13:1 51:1 52:1 54:1 106:1 111:1 116:1 132:1 151:1 256:1 313:1 321:1 366:1 392:1 399:1 413:1 472:1 513:1 627:1 730:1 745:1 857:1 879:1 1015:1 1081:1 1130:1 1307:1 1325:1 1365:1 1469:1 1474:1 1475:1 1482:1 1609:1 1894:1 2417:1 2598:1 2603:1 2656:1 2668:1 2702:1 2713:1 2715:1 2876:1 2896:1 2920:1 3133:1 3149:1 3461:1 4268:1 4406:1 4751:1 4837:1 5802:1 5806:1 5816:1 5829:1 5830:1 5832:1 5862:1 6777:1 7115:1 8050:1 8208:1 8209:1 8210:1 8211:1 8212:1 8213:1 8214:1 
0.01330281396740188 0:1 1:1 5:1 6:1 8:1 21:1 39:1 52:1 54:1 57:1 69:1 80:1 82:1 83:1 84:1 106:1 111:1 124:1 126:1 135:1 204:1 233:1 312:1 321:1 346:1 377:1 400:1 532:1 562:1 573:1 610:1 644:1 929:1 1122:1 1340:1 1343:1 1411:1 1414:1 1444:1 1454:1 1495:1 1983:1 2026:1 2145:1 2909:1 3895:1 4159:1 4357:1 4781:1 5041:1 5072:1 5798:1 6617:1 6875:1 6895:1 8230:1 8231:1 8232:1 8233:1 8234:1 8235:1 8236:1 
0.01224667532728087 0:1 5:1 10:1 28:1 39:1 51:1 52:1 54:1 61:1 80:1 84:1 110:1 111:1 116:1 124:1 131:1 135:1 199:1 201:1 245:1 300:1 376:1 392:1 469:1 499:1 533:1 557:1 652:1 723:1 880:1 889:1 1100:1 1255:1 1288:1 1376:1 1392:1 1480:1 1518:1 1588:1 1594:1 1646:1 1647:1 1658:1 1659:1 1664:1 1670:1 1678:1 1679:1 1681:1 1684:1 2019:1 2116:1 2252:1 2307:1 2364:1 2846:1 3177:1 3923:1 8083:1 8084:1 8087:1 8264:1 8265:1 8266:1 
0.001428967550582407 0:1 5:1 6:1 8:1 11:1 16:1 21:1 28:1 39:1 45:1 52:1 54:1 56:1 57:1 73:1 80:1 82:1 84:1 85:1 87:1 109:1 110:1 111:1 116:1 126:1 127:1 147:1 188:1 192:1 205:1 222:1 245:1 264:1 278:1 280:1 285:1 286:1 300:1 321:1 335:1 367:1 386:1 388:1 400:1 406:1 437:1 475:1 499:1 513:1 516:1 532:1 558:1 561:1 606:1 625:1 650:1 681:1 690:1 717:1 764:1 776:1 822:1 823:1 831:1 839:1 901:1 929:1 941:1 963:1 969:1 994:1 1031:1 1096:1 1106:1 1118:1 1151:1 1154:1 1198:1 1204:1 1265:1 1295:1 1315:1 1341:1 1374:1 1392:1 1436:1 1445:1 1611:1 1612:1 1633:1 1635:1 1642:1 1767:1 1784:1 1802:1 1804:1 1824:1 1845:1 1852:1 1859:1 1939:1 1960:1 1970:1 1974:1 1982:1 2021:1 2026:1 2034:1 2045:1 2057:1 2066:1 2072:1 2082:1 2174:1 2225:1 2238:1 2350:1 2411:1 2457:1 2508:1 2595:1 2606:1 2622:1 2704:1 2907:1 2910:1 3055:1 3070:1 3175:1 3224:1 3430:1 3853:1 3940:1 3941:1 3954:1 3986:1 4066:1 4319:1 4485:1 4886:1 5044:1 5105:1 5237:1 5301:1 5317:1 5320:1 5369:1 5495:1 5702:1 5707:1 5728:1 5751:1 5813:1 6288:1 6362:1 6412:1 6767:1 6860:1 6961:1 7293:1 7582:1 7767:1 7875:1 8281:1 8282:1 8283:1 8284:1 8285:1 8286:1 8287:1 8288:1 8289:1 8290:1 8291:1 8292:1 8293:1 8294:1 8295:1 8296:1 8297:1 8298:1 8299:1 8300:1 8301:1 8302:1 8303:1 8304:1 8305:1 8306:1 8307:1 8308:1 8309:1 8310:1 8311:1 8312:1 8313:1 8314:1 8315:1 8316:1 8317:1 8318:1 8319:1 8320:1 8321:1 8322:1 
0.001058431457528858 0:1 4:1 5:1 8:1 10:1 11:1 16:1 17:1 39:1 40:1 45:1 50:1 51:1 54:1 56:1 61:1 63:1 69:1 80:1 83:1 87:1 106:1 110:1 111:1 116:1 129:1 131:1 135:1 154:1 159:1 190:1 193:1 199:1 201:1 222:1 229:1 232:1 266:1 267:1 286:1 312:1 321:1 342:1 343:1 366:1 372:1 376:1 386:1 410:1 412:1 481:1 486:1 494:1 499:1 512:1 513:1 514:1 530:1 547:1 550:1 557:1 562:1 595:1 606:1 642:1 656:1 879:1 941:1 1023:1 1048:1 1091:1 1118:1 1155:1 1255:1 1278:1 1329:1 1330:1 1347:1 1374:1 1407:1 1436:1 1464:1 1469:1 1471:1 1517:1 1588:1 1594:1 1681:1 1713:1 1726:1 1735:1 1762:1 1802:1 1901:1 1952:1 2005:1 2132:1 2231:1 2319:1 2367:1 2450:1 2466:1 2500:1 2597:1 2664:1 2776:1 2968:1 3070:1 3101:1 3149:1 3206:1 3241:1 3380:1 3529:1 3608:1 3617:1 3821:1 3834:1 3871:1 4079:1 4498:1 4574:1 4590:1 4653:1 4656:1 4698:1 4706:1 5085:1 5517:1 5614:1 5856:1 5881:1 6082:1 6250:1 6804:1 7014:1 8060:1 8367:1 8368:1 8369:1 8370:1 8371:1 8372:1 8373:1 8374:1 8375:1 8376:1 8377:1 8378:1 8379:1 8380:1 8381:1 8382:1 8383:1 8384:1 8385:1 8386:1 8387:1 8388:1 8389:1 8390:1 8391:1 8392:1 8393:1 8394:1 8395:1 
0.001786159974671069 0:1 5:1 6:1 8:1 10:1 11:1 13:1 16:1 21:1 28:1 39:1 42:1 45:1 50:1 51:1 52:1 54:1 57:1 80:1 82:1 85:1 86:1 90:1 106:1 107:1 110:1 111:1 112:1 116:1 130:1 131:1 133:1 135:1 146:1 179:1 201:1 229:1 255:1 261:1 262:1 313:1 335:1 359:1 365:1 382:1 392:1 399:1 465:1 480:1 484:1 509:1 513:1 516:1 530:1 547:1 550:1 562:1 565:1 723:1 824:1 941:1 996:1 1042:1 1043:1 1118:1 1244:1 1320:1 1329:1 1396:1 1469:1 1497:1 1502:1 1519:1 1527:1 1609:1 1651:1 1659:1 2116:1 2132:1 2194:1 2205:1 2356:1 2457:1 2506:1 2527:1 2601:1 2649:1 2765:1 2929:1 3011:1 3167:1 3365:1 3572:1 3576:1 3663:1 3950:1 4053:1 4066:1 4553:1 4602:1 4603:1 4619:1 4774:1 4904:1 4971:1 5223:1 5307:1 5369:1 5708:1 5962:1 5984:1 6413:1 7837:1 7916:1 8581:1 8582:1 8583:1 8584:1 8585:1 8586:1 8587:1 8588:1 8589:1 8590:1 8591:1 8592:1 8593:1 8594:1 8595:1 8596:1 8597:1 8598:1 8599:1 8600:1 8601:1 8602:1 8603:1 
0.002522484582557401 0:1 4:1 5:1 8:1 10:1 13:1 16:1 22:1 28:1 39:1 42:1 45:1 51:1 52:1 54:1 56:1 57:1 72:1 80:1 82:1 84:1 106:1 111:1 112:1 114:1 116:1 127:1 130:1 131:1 135:1 136:1 151:1 154:1 157:1 189:1 190:1 199:1 204:1 255:1 321:1 376:1 378:1 391:1 400:1 407:1 452:1 469:1 484:1 509:1 513:1 516:1 519:1 557:1 558:1 565:1 573:1 591:1 601:1 612:1 618:1 627:1 876:1 917:1 938:1 994:1 1015:1 1049:1 1092:1 1136:1 1163:1 1414:1 1428:1 1433:1 1489:1 1603:1 1640:1 1648:1 1692:1 1698:1 1870:1 2082:1 2231:1 2490:1 2773:1 2778:1 2982:1 3120:1 3349:1 3375:1 3404:1 3427:1 3500:1 3684:1 3710:1 3742:1 3851:1 3922:1 4160:1 4625:1 4782:1 5023:1 5466:1 5861:1 6067:1 6191:1 6199:1 6201:1 7374:1 7472:1 7978:1 8604:1 8605:1 8606:1 8607:1 
0.09411022943480644 0:1 8:1 39:1 80:1 126:1 135:1 234:1 241:1 353:1 374:1 392:1 516:1 540:1 563:1 830:1 1031:1 1111:1 1122:1 1392:1 1574:1 1870:1 2324:1 2408:1 3025:1 3223:1 3638:1 
0.002404038305577499 0:1 5:1 8:1 10:1 16:1 28:1 37:1 51:1 54:1 56:1 57:1 64:1 67:1 73:1 80:1 82:1 83:1 84:1 86:1 106:1 110:1 111:1 116:1 122:1 124:1 129:1 130:1 131:1 155:1 199:1 201:1 232:1 249:1 256:1 312:1 313:1 321:1 386:1 392:1 472:1 480:1 484:1 486:1 513:1 530:1 542:1 543:1 550:1 555:1 557:1 562:1 573:1 586:1 618:1 874:1 879:1 1244:1 1283:1 1453:1 1469:1 1584:1 1632:1 1698:1 1983:1 2237:1 2569:1 2668:1 2809:1 2947:1 3077:1 3266:1 4116:1 4322:1 4767:1 4897:1 6183:1 6963:1 6967:1 7124:1 7817:1 7923:1 8611:1 8612:1 8613:1 8614:1 8615:1 8616:1 8617:1 8618:1 8619:1 8620:1 8621:1 8622:1 8623:1 
0.001792539946515055 0:1 1:1 5:1 6:1 11:1 13:1 39:1 42:1 44:1 45:1 51:1 54:1 56:1 57:1 71:1 80:1 82:1 83:1 106:1 107:1 110:1 111:1 113:1 115:1 116:1 124:1 126:1 127:1 129:1 151:1 199:1 232:1 235:1 256:1 264:1 275:1 312:1 321:1 374:1 400:1 412:1 480:1 486:1 509:1 511:1 512:1 547:1 557:1 561:1 569:1 618:1 686:1 994:1 1031:1 1046:1 1083:1 1293:1 1319:1 1482:1 1591:1 1681:1 2290:1 2327:1 2595:1 2596:1 2598:1 2670:1 2752:1 2972:1 2974:1 3092:1 3147:1 3149:1 3295:1 3356:1 3457:1 3582:1 3591:1 3644:1 4199:1 4294:1 4457:1 4935:1 5576:1 5802:1 5817:1 5830:1 5833:1 5871:1 6274:1 6289:1 6562:1 6776:1 7087:1 7755:1 7964:1 8625:1 8626:1 8627:1 8628:1 8629:1 8630:1 8631:1 8632:1 8633:1 
